svm_type c_svc
kernel_type rbf
gamma 0.027027
nr_class 31
total_sv 4491
rho -0.00471259 0.155898 0.466794 0.210288 -0.0194275 0.227321 0.158281 0.529902 0.672992 0.277206 0.649489 0.562979 0.575202 0.568858 0.759718 0.407773 0.610053 0.687568 0.717287 0.601913 0.556644 0.63034 0.401569 0.467348 0.660179 0.477097 0.528568 0.447425 0.43846 0.359106 0.166398 0.468794 0.230828 -0.0120404 0.239364 0.176464 0.537275 0.67911 0.277869 0.655255 0.569115 0.580487 0.572786 0.76281 0.413816 0.617417 0.693363 0.720865 0.606931 0.560587 0.637523 0.417486 0.472936 0.664173 0.486576 0.5358 0.454041 0.447391 0.383477 0.300833 0.0572158 -0.18187 0.06629 -0.0083654 0.399961 0.582079 0.11802 0.552452 0.447845 0.466032 0.455765 0.690506 0.272281 0.508746 0.602273 0.637982 0.49787 0.442558 0.525031 0.260456 0.339665 0.567905 0.349984 0.412454 0.310091 0.297947 0.215501 -0.224373 -0.466897 -0.210141 -0.347068 0.131264 0.357055 -0.188816 0.307328 0.184164 0.19828 0.186177 0.497239 -0.0232434 0.263258 0.378445 0.422543 0.238326 0.169111 0.274972 0.0581757 0.0502091 0.326659 0.0582957 0.136791 0.00619559 0.0028881 -0.0805521 -0.239324 0.0342327 -0.0270543 0.3687 0.561982 0.0636113 0.516561 0.406734 0.418737 0.412008 0.660077 0.217568 0.484829 0.574006 0.604049 0.45851 0.394311 0.501614 0.210396 0.286295 0.526609 0.302446 0.372751 0.257688 0.2455 0.163336 0.247906 0.17529 0.553373 0.695053 0.297891 0.670405 0.590083 0.602852 0.59349 0.778285 0.437971 0.632376 0.712497 0.738075 0.628181 0.582659 0.650065 0.429251 0.515498 0.683535 0.500653 0.554167 0.463692 0.470434 0.400344 -0.0843982 0.353946 0.543786 0.0530814 0.503626 0.396062 0.409356 0.399337 0.651248 0.20841 0.480684 0.560091 0.593541 0.445143 0.384304 0.486942 0.194715 0.27734 0.517121 0.285101 0.354324 0.244663 0.233722 0.15377 0.466522 0.608033 0.126667 0.549077 0.525013 0.479634 0.470509 0.701513 0.280961 0.541709 0.623054 0.652634 0.517787 0.454891 0.532953 0.2918 0.350657 0.583497 0.379501 0.442355 0.33548 0.314472 0.228534 0.230882 -0.310574 0.187517 0.0425477 0.072268 0.0601224 0.398829 -0.148461 0.123976 0.271495 0.318736 0.114017 0.0434138 0.150442 -0.168823 -0.0793233 0.21286 -0.0525139 0.00366324 -0.126261 -0.127943 -0.209771 -0.505632 -0.0347355 -0.18444 -0.158017 -0.171889 0.199995 -0.364745 -0.119343 0.0316861 0.0960454 -0.122886 -0.18683 -0.0970052 -0.38507 -0.31012 -0.0227236 -0.320855 -0.244195 -0.346689 -0.343454 -0.41586 0.479914 0.35945 0.381844 0.368606 0.630222 0.16315 0.423115 0.528854 0.5711 0.410721 0.346062 0.475362 0.141055 0.257558 0.494141 0.241393 0.314547 0.200425 0.190625 0.111506 -0.137671 -0.113781 -0.138198 0.227098 -0.325426 -0.0693566 0.0741149 0.139157 -0.0728972 -0.164432 -0.0439117 -0.342186 -0.267129 0.0293227 -0.272697 -0.195387 -0.307576 -0.30266 -0.379197 0.0430418 0.010923 0.352531 -0.196041 0.0729261 0.21413 0.269463 0.0654385 -0.00524843 0.100859 -0.217107 -0.12938 0.163181 -0.128316 -0.0509394 -0.16372 -0.174901 -0.258978 -0.0130374 0.332433 -0.227191 0.0364285 0.191974 0.246651 0.0553357 -0.0291862 0.0820878 -0.234846 -0.158587 0.137785 -0.151464 -0.0736937 -0.194728 -0.196984 -0.275359 0.342014 -0.206675 0.0618726 0.198344 0.260346 0.0548379 -0.000889806 0.0855862 -0.228205 -0.139809 0.156475 -0.141504 -0.0608138 -0.187269 -0.183061 -0.263692 -0.514294 -0.295652 -0.158764 -0.111922 -0.300731 -0.358605 -0.273712 -0.522379 -0.470367 -0.211513 -0.480973 -0.413217 -0.495131 -0.494504 -0.554433 0.264996 0.390303 0.442905 0.25834 0.190926 0.300053 -0.016324 0.0350899 0.34763 0.0743332 0.149154 0.0289231 0.0241701 -0.059586 0.157855 0.205597 -0.00626272 -0.0773765 0.0336828 -0.289614 -0.207125 0.0924524 -0.245914 -0.131688 -0.238375 -0.249811 -0.322727 0.0603664 -0.153889 -0.213484 -0.118616 -0.406435 -0.338616 -0.0504445 -0.364142 -0.285463 -0.380684 -0.372751 -0.439911 -0.207003 -0.278678 -0.171481 -0.451755 -0.392814 -0.129431 -0.405269 -0.338508 -0.423358 -0.420179 -0.485922 -0.0703317 0.0129776 -0.274903 -0.195664 0.0996121 -0.196851 -0.11973 -0.235425 -0.236451 -0.312146 0.106122 -0.207673 -0.123158 0.177012 -0.122443 -0.0436998 -0.168269 -0.167147 -0.248032 -0.31352 -0.251832 0.0649949 -0.240791 -0.154879 -0.276385 -0.270305 -0.349595 0.0899755 0.360901 0.104024 0.175214 0.0617341 0.0445911 -0.0194072 0.291488 0.00132243 0.0800641 -0.0643632 -0.0502738 -0.127585 -0.297969 -0.215291 -0.327134 -0.325071 -0.397543 0.0411216 0.0361927 0.00840701 -0.121151 -0.114261 -0.10262 -0.210172 -0.0081632 -0.0951541 -0.0884207
label 2 3 4 5 6 7 8 9 97 98 99 100 101 102 103 104 106 107 109 110 112 113 114 115 116 117 118 119 120 121 122
nr_sv 59 71 58 107 103 41 95 94 189 174 109 174 168 150 185 234 89 216 209 202 168 176 178 183 113 193 169 162 163 136 123
SV
0.4399831897986178 0.5479089340924304 0.6930948967163187 0.5762931326629492 0.4582991210661649 0.6404379866843653 0.5732862465423088 0.7227041088728294 0.7907950925762229 0.5982293049450187 0.7758208524379361 0.7385710865836954 0.7430964509519012 0.7396629705858834 0.8298879829314374 0.664203322644804 0.7637291913535415 0.7961159983604552 0.8100269784003897 0.7550311634715362 0.7340786651053731 0.7695164447854888 0.7169857666122265 0.6934449712905688 0.7825899774058155 0.6925225854481707 0.7208071177162969 0.6705104151608435 0.682995854921798 0.7115463080559789 2:3 3:8 4:5 5:4 6:3 7:2 8:2 9:2 10:3 11:3 12:3 13:4 14:3 15:4 16:6 17:6 18:6 24:3 25:3 26:6 27:7 28:4 29:9 30:5 31:9 32:9 33:2 34:6 35:4 
0.05920584363332337 0.2842319148649128 0.2526620997742221 0.2663293345887459 0.2563617222837182 0.2824198908406155 0.2624090524851649 0.3571238083675158 0.3901180544371306 0.2755920181295663 0.3844828864525084 0.3661181254282199 0.3663119297995242 0.3592692904224838 0.4083497974759384 0.326932254105306 0.3743808728647844 0.3914951750828241 0.3987574182239866 0.3734591642515082 0.35927250646823 0.3708311300038439 0.3952043021096627 0.3414185462372243 0.3855566636648202 0.3460776825143668 0.3564287820485294 0.3438216726748862 0.3414414378039266 0.3216670033091678 2:3 3:7 4:5 5:3 6:2 7:2 8:1 9:2 10:3 11:4 12:2 13:3 14:4 15:2 16:6 17:5 18:6 24:1 25:5 26:4 27:5 28:7 29:6 30:3 31:7 32:5 33:10 34:3 35:4 
0.1858069667749539 0.2718931823084749 0.2973259876106975 0.2809855969994131 0.2110272300465415 0.2874499505912126 0.2264959851866357 0.3609340059699427 0.3937647272265145 0.2904322986851168 0.3874203012641249 0.3656838527054681 0.3710606708828268 0.3716825527779363 0.4157668345396271 0.3325750192086633 0.3772122658111427 0.3988011325130307 0.406327430866302 0.3779659991175253 0.3678851882903811 0.3727054867150919 0.4173664010933035 0.3460633498117032 0.3921932265475099 0.34404285600499 0.3586930540848492 0.3410407146554802 0.3286809758605779 0.4008863650840463 2:3 3:6 4:6 5:1 6:2 7:1 8:3 9:1 10:4 11:3 12:2 13:3 14:4 15:2 16:7 17:5 18:7 24:1 25:5 26:4 27:5 28:7 29:6 30:3 31:7 32:5 33:8 34:5 35:4 
0.6094320773530821 0.504248999447893 0.7376596206352242 0.5576917339036841 0.4541891242533004 0.5961036859685263 0.5334626651715355 0.6682017395098032 0.7335837006915059 0.5568253053260893 0.7219058386661839 0.6897027736365551 0.6883530368044598 0.6855887555261122 0.7694543300560135 0.6150256844427947 0.703984753920475 0.7395957491880848 0.7506270787416458 0.7006932466035214 0.680184393443962 0.7150903743944228 0.7403639306356967 0.64155236623332 0.72531803242798 0.6465979701595793 0.6679155224269486 0.6354564923298962 0.6302983542107971 0.9245676480666651 2:8 3:8 4:5 5:6 6:2 7:3 8:2 9:3 10:4 11:3 12:3 13:3 14:2 15:2 16:5 17:9 18:6 24:3 25:4 26:6 27:6 28:5 29:7 30:6 31:10 32:9 33:8 34:7 35:3 
0.2146978710363663 0 0 0 0 0 0 0 0 0 0 0 0 0 0 0 0 0 0 0 0 0 0 0 0 0 0 0 0 0 2:3 3:6 4:4 5:6 6:2 7:2 8:1 9:3 10:4 11:2 12:3 13:2 14:3 15:3 16:7 17:4 18:5 20:1 22:1 24:3 25:2 26:5 27:6 28:6 29:5 30:7 31:5 32:7 33:7 34:5 35:4 
0.1392735420733257 0.3127866814188335 0.3598659118173646 0.2869040702413158 0.3821962040794936 0.3171660746675609 0.2772712353335719 0.4117432873555945 0.4498596037815469 0.3458676681311829 0.4423333136559653 0.4187785960390099 0.4243792629800244 0.421590138325445 0.4746395206593997 0.3795043616873553 0.4297131563026227 0.4559245119988616 0.4629726798408972 0.4318589784777741 0.4200717715605629 0.4381619151972934 0.4145266761508643 0.3990017344212604 0.4473841714352095 0.3953927673972484 0.4116774563835444 0.3708752117626004 0.4474145455274564 0.5291530224284375 2:3 3:6 4:7 5:3 6:4 7:1 8:2 9:2 10:2 11:2 12:3 13:3 14:1 15:4 16:5 17:4 18:7 24:3 25:4 26:3 27:3 28:5 29:5 30:6 31:8 32:6 33:5 34:5 35:6 
1 0 0 0 0 0 0 0 0 0 0 0 0 0 0 0 0 0 0 0 0 0 0 0 0 0 0 0 0 0 2:3 3:7 4:6 5:5 6:2 7:2 8:3 9:2 10:4 11:2 12:3 13:2 14:3 15:3 16:6 17:6 18:5 24:3 25:2 26:6 27:6 28:5 29:5 30:7 31:7 32:6 33:7 34:7 35:3 
0.3289112124568687 0.1630317631540858 0.4290124146984743 0.2519557845512311 0.1448614406244988 0.18729037970662 0.2139588238649149 0.2069293634299008 0.2243797509035295 0.1673421917928311 0.2196424880106432 0.2112537884564861 0.2107912685971407 0.208187097245301 0.2341508756598725 0.1873733637466882 0.220016026233868 0.2264872548887392 0.2283571783584533 0.2144292021691251 0.2074281431926967 0.2641964658373368 0.3100513591212824 0.1963269787613232 0.2210472770793354 0.2065464659169431 0.2063879394838387 0.2025527884024237 0.2314066620021679 0.1945523664902129 2:3 3:8 4:4 5:6 6:2 7:2 8:2 9:3 10:3 11:3 12:3 13:2 14:3 15:3 16:6 17:5 18:5 24:4 25:3 26:5 27:6 28:5 29:5 30:7 31:6 32:5 33:10 34:3 35:4 
0 0.03739829055656861 0 0.01562599195550987 0.05623225506468682 0.01075798096927972 0 0.0563540653422714 0.05278246644053532 0.05587698801489454 0.04829420877209333 0.05209093032963637 0.05298440550255811 0.04825134199483597 0.0579455777237357 0.04628594122189427 0.05027717033738315 0.05629459172382183 0.05650549282793321 0.0528493689917945 0.05044010655139936 0.04986991222254791 0.1240296943815162 0.04897797184213179 0.05470568843936702 0.06892319471077094 0.04809979269365537 0.1180505562201363 0.1144462092430466 0.1420832851117166 2:4 3:5 4:5 5:6 6:3 7:4 8:2 9:2 10:1 11:2 12:2 13:3 14:3 15:3 16:6 17:4 18:6 24:3 25:3 26:5 27:6 28:4 29:8 30:5 31:5 32:5 33:5 34:7 35:5 
0.1483200663708751 0.1913162433385033 0.3057198313498918 0.2517328092158628 0.1558575949479001 0.2206620611766781 0.3335400158894732 0.2556564747699133 0.2803633439867113 0.3139878080777505 0.291277312666775 0.2677369355177673 0.2635896623123921 0.2652011148947133 0.2929215602706024 0.2344241704796565 0.2760856507901384 0.2819747351122273 0.2859121039870288 0.2678572085466709 0.2645912755810423 0.28006829075281 0.4310074875841404 0.2473222534827985 0.2760051224727532 0.2527299967912818 0.260328677196648 0.2644556581247001 0.2600333201404885 0.4229822416253922 2:3 3:6 4:6 5:4 6:2 7:2 8:2 9:2 10:2 11:2 12:3 13:3 14:3 15:2 16:5 17:7 18:6 19:1 24:2 25:6 26:6 27:5 28:7 29:4 30:6 31:4 32:7 33:6 34:5 35:3 
0.5587857797509813 0.3672943782639059 0.5065603164228303 0.3771726363760125 0.3101256194084349 0.3667076523171181 0.3813534185706478 0.4823785924594971 0.5258364390117586 0.3941345110287742 0.5215122251367544 0.4893159053737536 0.496051924798511 0.4935656969971132 0.5541740246966579 0.4433699699535648 0.5052000418379885 0.5310103797950155 0.5409166743977552 0.5043084491212855 0.4896696522473069 0.5166148461788904 0.4334505301336231 0.4623044735465345 0.5228865535131297 0.4644393409735146 0.480916579533294 0.4535106847108913 0.4486931861407173 0.3238717728539648 1:3 2:5 3:7 4:6 5:4 6:3 7:2 8:2 9:3 10:4 11:3 12:3 13:3 14:2 15:2 16:4 17:8 18:8 24:2 25:3 26:6 27:5 28:4 29:7 30:6 31:9 32:10 33:9 34:7 35:4 
1 0.08979449868039965 0.450868722914104 0.2248969707589857 0.1408020963910968 0.08897622157637977 0.2489364776276934 0.1195720144397198 0.1229242035178838 0.1115494763378864 0.1128630489891953 0.1245602540659669 0.1168216035879885 0.1222315206440102 0.1281155597778459 0.1023125796456671 0.1199250206618568 0.1228266645779588 0.1250607863516984 0.1175318530594969 0.1114151140682366 0.1601521754050259 0.552162864530087 0.1086819735981886 0.1209273183200296 0.1309403752382686 0.117195298723376 0.11476057558087 0.128672065535405 0.01334765023669564 2:3 3:6 4:6 5:1 6:2 7:1 8:3 9:1 10:4 11:3 12:3 13:2 14:3 15:3 16:7 17:5 18:4 24:2 25:3 26:5 27:6 28:5 29:5 30:5 31:5 32:6 33:7 34:5 35:3 
0.4158613610264894 0.08735941173416373 0.258248255930583 0.1742382113936895 0.05555865464053675 0.07965223370874108 0.2624769926822063 0.1209122755223839 0.1208848791507275 0.0690159729639222 0.1390442827113152 0.1144546010550469 0.1146615615909744 0.1158509135684768 0.1283145982747062 0.1030283891170097 0.1181048255500513 0.1238976040379561 0.1258249328843304 0.1166663779690399 0.1126198900165734 0.1376920538032457 0.3836961474888147 0.1068813037632798 0.1213114964785696 0.1209200803876842 0.1142411395359888 0.1468125279268848 0.1150781843345806 0.08197443804787828 2:3 3:6 4:3 5:7 6:1 7:2 8:2 9:3 10:4 11:2 12:4 13:2 14:3 15:3 16:6 17:6 18:5 24:3 25:2 26:5 27:6 28:6 29:5 30:7 31:5 32:7 33:6 34:5 35:5 
0 0.005336896535991874 0 0 0 0.007165292545601531 0.005349938327037208 0.01399560947536348 0.01481023530034827 0 0.01165883666225681 0.01387903508588212 0.01321509661293005 0.01059886124386656 0.01584087047802072 0.01286550446131095 0.01259278218456873 0.01397637735920757 0.01539276248618429 0.01350297875380964 0.009802665409018989 0.01195074725972848 0 0.01251341207063488 0.01403788107069651 0.01303511216452896 0.01618097170468581 0 0 0 2:3 3:4 4:3 5:6 6:2 7:2 8:3 10:2 11:2 12:3 13:2 14:2 15:2 16:6 17:4 18:8 24:2 25:3 26:4 27:3 28:3 29:6 30:4 31:7 32:7 33:5 34:4 35:6 
0.2335534970029643 0.3335372629775333 0.4026267769694435 0.3349416780527684 0.2801589215058457 0.3431397693783898 0.3065203689957289 0.4479702460191518 0.4888001198262393 0.368905663487954 0.4827019397822895 0.4567390138255906 0.4614818904728092 0.4598548579666709 0.5155572673821584 0.4126635989572904 0.4705046240833681 0.4941876782452992 0.5030187039898925 0.4696414425574693 0.4557300760842135 0.4732404324762076 0.3221479057111485 0.4296498171849716 0.4859742385882513 0.4303854765282251 0.4467507625974578 0.4198771601712823 0.4096047991637398 0.4298971228231615 2:3 3:7 4:4 5:6 6:2 7:2 8:2 9:3 10:2 11:3 12:3 13:3 14:2 15:2 16:4 17:9 18:8 24:2 25:3 26:5 27:6 28:4 29:7 30:5 31:10 32:8 33:8 34:2 35:5 
0.1894226624545648 0.2876216713348743 0.3073692811980165 0.2948598170675263 0.2459072628546154 0.3180097294469271 0.2568260758382429 0.3807157784903904 0.4187561029053605 0.3083106078350564 0.4096345846057302 0.3950363301920848 0.3939808577443953 0.3910877878272836 0.4403583216285106 0.3521260416664392 0.4025344255629755 0.4223797556986146 0.4295030632465586 0.4001672122842212 0.3880187572653266 0.4082584484216048 0.3339486625633685 0.366635443179527 0.4150831422602156 0.3693134306857359 0.3820098830815675 0.3584073914413244 0.3592959952403786 0.490132842925706 2:3 3:4 4:6 5:6 6:4 7:3 8:2 9:4 10:3 11:3 12:3 13:3 14:3 15:1 16:8 17:8 18:7 24:4 25:4 26:3 27:9 28:4 29:8 30:6 31:9 32:7 33:7 34:6 35:4 
0.3381405850123084 0.4877770861484538 0.5922833835277984 0.4708867100156564 0.4148475605437479 0.4978785376680024 0.4404541376564221 0.6463291631168078 0.7069565259980907 0.5477958512270208 0.6963673264680181 0.6597913502993134 0.6669334390746944 0.661619903699821 0.7447807279157235 0.5956367987338086 0.6787981742892792 0.7139318764851844 0.7262850351875008 0.6778418555916382 0.6588340143427934 0.6846026799956808 0.5401077300100972 0.6214504400213726 0.7025163041403546 0.6303898862568786 0.6467683981717585 0.6125289874194239 0.6245175230152268 0.5625779740910931 2:3 3:5 4:3 5:7 6:2 7:2 8:3 10:2 12:3 13:3 14:1 15:1 16:7 17:5 18:6 24:5 25:2 26:4 27:4 28:4 29:4 30:5 31:5 32:4 33:6 34:4 35:6 
0.3496857780240944 0 0 0 0 0 0 0 0 0 0 0 0 0 0 0 0 0 0 0 0 0 0 0 0 0 0 0 0 0 2:3 3:6 4:7 5:4 6:4 7:1 8:3 9:3 10:2 11:2 12:3 13:2 14:3 15:3 16:7 17:5 18:5 24:3 25:3 26:6 27:7 28:4 29:5 30:7 31:6 32:7 33:7 34:5 35:3 
0 0 0 0 0 0 0 0 0 0.02184236746150792 0 0 0 0 0 0 0 0 0 0 0 0 0 0 0 0 0 0 0 0 2:3 3:6 4:7 5:2 6:3 7:1 8:3 9:2 10:1 11:2 12:3 13:2 14:3 15:3 16:7 17:6 18:4 24:2 25:3 26:5 27:6 28:5 29:5 30:5 31:5 32:6 33:6 34:6 35:4 
0 0 0 0 0 0 0 0 0 0 0 0 0 0 0 0 0 0 0 0 0 0 0.2509986506432189 0 0 0 0 0 0 0.01296631356500465 2:3 3:7 4:5 5:3 6:2 7:2 8:1 9:2 10:3 11:2 12:3 13:2 14:3 15:3 16:4 17:7 18:5 19:1 20:1 24:2 25:3 26:5 27:6 28:5 29:5 30:5 31:5 32:5 33:8 34:5 35:3 36:2 
0 0 0.05923807250517978 0 0.04263820161876973 0 0 0 0 0 0 0 0 0 0 0 0 0 0 0 0 0 0.1482471131008604 0 0 0 0 0 0 0.8837424834879056 1:1 2:6 3:6 4:7 5:2 6:3 7:1 8:3 9:2 10:1 11:4 12:2 13:3 14:2 15:3 16:7 17:7 18:7 24:2 25:5 26:5 27:6 28:5 29:7 30:6 31:7 32:7 33:7 34:6 35:4 
0 0 0 0 0.01547622158253551 0 0 0 0 0 0 0 0 0 0 0 0 0 0 0 0 0 0 0 0 0 0 0 0.003460957534089729 0 2:3 3:6 4:7 5:6 6:1 7:2 8:3 9:2 10:3 11:1 12:4 13:2 14:3 15:3 16:6 17:5 18:5 24:2 25:3 26:5 27:7 28:5 29:5 30:8 31:5 32:6 33:6 34:6 35:4 
0.6306517702772172 0.2530232866851714 0.5430689925703787 0.3764788945554349 0.2059567639260589 0.2744611310905842 0.314990258164146 0.3322465452108959 0.3567456205720799 0.3144641981568619 0.3514721437412727 0.3315957200514471 0.3366197953945033 0.3469168861528378 0.3770204922326025 0.3015780778275346 0.3436084055871815 0.3613490938105111 0.3679116079925145 0.3416442138773465 0.3358488259602351 0.386148217332881 0.5888321656869242 0.3131433482990632 0.3559062879135134 0.3216519413415659 0.3290271141247916 0.3409280282489762 0.3113887473213114 0.2590016860731483 2:3 3:7 4:5 5:3 6:2 7:2 8:1 9:2 10:3 11:3 12:3 13:2 14:3 15:3 16:6 17:6 18:4 24:2 25:4 26:6 27:4 28:6 29:4 30:4 31:6 32:5 33:10 34:3 35:4 
0 0.04166944618134578 0 0.00702486796808758 0.0406083732797119 0.028507681818698 0 0.06334440290357152 0.07166631230512281 0.06759450027092284 0.06891653740896267 0.07281823299959253 0.06922861673604885 0.06696458195673906 0.07823710367322302 0.06214901413218448 0.06784425981498389 0.07364145057328729 0.07560615219733564 0.0701770907603662 0.06853095250979127 0.06326958448635867 0 0.06530435217199514 0.07285227389345826 0.06221090968737914 0.06585710904930893 0.04795038443845698 0.06091613588293259 0.07981978886457035 2:3 3:6 4:6 5:3 6:1 7:1 8:2 9:4 10:1 11:3 12:3 13:3 14:3 15:1 16:7 17:6 18:8 24:3 25:4 26:4 27:6 28:5 29:6 30:7 31:7 32:6 33:8 34:3 35:2 
0.1160826844490597 0.03114688413314087 0 0 0.0578692751229558 0 0.02542107747775054 0.01248397342304019 0.01251213862483585 0 0.01396577696124214 0.01110198688313861 0.0138308258343942 0.01056950356175861 0.01446788217458552 0.01204367068299285 0.01191125516767633 0.01473879546663846 0.01499687629372526 0.01366054819682022 0.01183656093220687 0.006951801718334535 0 0.01415644914975161 0.01438366853375622 0.02171575345963126 0.01466920041360362 0 0.04962810974708547 0 2:3 3:4 4:5 5:5 6:1 7:3 9:3 10:3 11:3 12:4 13:2 14:3 15:2 16:5 17:5 18:7 24:3 25:3 26:3 27:4 28:4 29:6 30:7 31:8 32:6 33:7 34:5 35:2 
0.3166079627952955 0.2597042909300129 0.3407458044781913 0.255601117540333 0.2318112713502917 0.2616436294410719 0.266353553488882 0.3382472888997416 0.3696597661745618 0.2609783414200549 0.3654743147506943 0.3441356262543187 0.3486859405480602 0.3464187706889642 0.3891642971005181 0.3109161246284254 0.3547589383429736 0.3736617857795943 0.3799537723996397 0.3546998391532534 0.3458876261085171 0.3604216463354752 0.2456470813969559 0.3237331292534632 0.3673290044714916 0.3234842051949636 0.3356453314262374 0.3159206458124784 0.3432236989353238 0.2664456356562963 2:4 3:4 4:3 5:6 6:2 7:2 8:3 10:2 11:2 12:3 13:2 14:2 15:2 16:5 17:5 18:7 19:1 24:2 25:3 26:4 27:3 28:3 29:6 30:4 31:7 32:8 33:5 34:4 35:6 
0.279768206828773 0.2832086335345224 0.3272039664289509 0.268494539038384 0.2397530867935059 0.3049141372466799 0.2782990207483092 0.3727589256948657 0.4112407812978433 0.3017247249978428 0.4041003735471385 0.3955975786031906 0.3862352551827521 0.3816333069719712 0.431463580594817 0.3456786978948855 0.3958550384390274 0.4136048672062421 0.4209717859771414 0.3927620983598639 0.3798953993200301 0.4005310563516398 0.2126553331742454 0.3589071830510126 0.4073100389916501 0.3549220163440521 0.3730952538192255 0.339959436998955 0.3397819260902298 0.574899095521681 1:2 2:4 3:4 4:7 5:3 7:3 8:1 9:3 10:2 11:3 12:3 13:3 14:3 15:2 16:7 17:7 18:7 24:2 25:4 26:4 27:8 28:4 29:6 30:6 31:7 32:9 33:7 34:4 35:3 
0 0.1638919500654575 0.1647875781636133 0.163487365660404 0.141169919878289 0.1580504549222108 0.1414385233476588 0.2095928575446128 0.2280467972090167 0.1883545308703596 0.2237221594261669 0.2142338980014476 0.2162699146246427 0.2151594360367409 0.2420457152307139 0.1932987739101442 0.2202485290882066 0.2319229971700427 0.2365038903991447 0.2198947747719378 0.2141259290385323 0.2213435446569456 0.2676143086003571 0.2025550631898428 0.2275654884037565 0.2074236620784505 0.2136082850340875 0.2052481740595182 0.244205556081221 0.2215524941927289 2:3 3:6 4:4 5:7 6:2 7:3 8:1 9:3 10:2 11:3 12:3 13:2 14:4 15:1 16:3 17:7 18:6 24:3 25:3 26:4 27:6 28:5 29:7 30:3 31:9 32:5 33:6 34:5 35:4 
0 0.1595849634414299 0.1886851299064218 0.206912788732205 0.1157972500074171 0.2036516635721127 0.1138502903676864 0.2142880402017938 0.23843235800743 0.2365939290730341 0.2315675627493791 0.2188553730610741 0.2258790189790294 0.236836935337152 0.2521805036678617 0.2022742891619313 0.2264353769216309 0.2411212980326208 0.2463782051035756 0.2297742154422281 0.2278736820711408 0.2234017687069727 0.2835460653507114 0.2097774399216526 0.2379087979089037 0.1977969388188043 0.2152194497642467 0.1961974714681769 0.1858748156649655 0.1840603345475314 1:1 2:1 3:6 4:8 5:6 6:1 7:3 8:2 9:2 10:3 11:2 12:2 13:3 14:3 15:3 16:7 17:5 18:5 24:4 25:2 26:6 27:6 28:4 29:6 30:5 31:7 32:5 33:6 34:6 35:6 
0 0.08611381702937389 0.1980047824746943 0.101857822195055 0.06416547022898593 0.06698140259257361 0.04699533706869847 0.1207987226892081 0.1333405572691382 0.1319206222674728 0.1314838353976635 0.1257381441895421 0.127955097373273 0.1360679756921661 0.1430510734816822 0.1144456599335985 0.1294876530574056 0.1366962928384574 0.1397062884840765 0.1299631175974853 0.1317079662601041 0.1331611065782291 0.2338681714430748 0.1191995881617485 0.1349635049540106 0.114252204191458 0.1235522621681455 0.1149808002360942 0.1008376511907079 0.8118591826870023 2:3 3:5 4:7 5:4 7:3 8:2 9:3 10:3 11:3 12:3 13:3 14:3 15:1 16:7 17:8 18:7 21:1 22:1 23:2 24:2 25:5 26:3 27:7 28:4 29:7 30:5 31:8 32:7 33:7 34:6 35:4 36:2 37:2 
0.2382223455583724 0 0 0 0 0 0 0 0 0 0 0 0 0 0 0 0 0 0 0 0 0 0 0 0 0 0 0 0 0 2:3 3:8 4:3 5:4 6:3 7:1 8:4 9:1 10:3 11:3 12:3 13:3 14:2 15:3 16:4 17:9 18:7 24:4 25:3 26:4 27:6 28:4 29:6 30:5 31:9 32:7 33:7 34:5 35:4 
0.003330667076434407 0.09888236644869523 0.1852412889190168 0.1488801779491163 0.06348676440296133 0.1581214245965543 0.1741367794676638 0.119328686207915 0.1449230212717333 0.1041310774273269 0.1384567864359931 0.1311730775551978 0.130853465202833 0.1317878022967258 0.1457353557359317 0.1166485348695544 0.1356924806840306 0.1388494689028297 0.1422460545301229 0.1327041167375433 0.1292847529507441 0.1437201047778302 0.2987788507271571 0.1199993265110837 0.1372699152060578 0.1050400703058024 0.1227084083146559 0.1063425907353148 0.09577607364578843 0.06979436549896366 2:3 3:6 4:8 5:5 6:3 7:2 8:2 9:4 10:2 11:2 12:3 13:2 14:3 15:3 16:7 17:5 18:6 24:3 25:3 26:6 27:7 28:4 29:5 30:7 31:6 32:6 33:7 34:8 35:4 
0 0 0.0603867995010837 0 0 0 0 0 0 0 0 0 0 0 0 0 0 0 0 0 0 0 0 0 0 0 0 0 0 0.06417327196972714 2:3 3:7 4:5 5:3 6:2 7:2 8:1 9:2 10:3 11:3 12:3 13:2 14:3 15:3 16:6 17:5 18:5 21:1 22:1 24:2 25:3 26:5 27:6 28:5 29:5 30:5 31:5 32:5 33:10 34:3 35:4 36:1 37:1 
0.2774164456020161 0.124338717495018 0.1720900112784194 0.1798499562174829 0.09060113011897304 0.1579995995412774 0.1813763485659265 0.1527939280133239 0.175426075270705 0.135814752587709 0.1668559018662063 0.1591483235162855 0.1628077306311556 0.1581700728586912 0.181512019813111 0.1450633445260006 0.169120229076866 0.1736067984410898 0.1770589081722823 0.164879068682283 0.1595925586082508 0.1617239903605089 0.102744787858082 0.1510199968121391 0.1711164285144945 0.1445463559453664 0.1553177098655893 0.1201724693005233 0.1552988947237293 0.08653051306141665 2:3 3:5 4:6 5:6 6:4 7:3 8:3 9:2 10:3 11:2 12:3 13:3 14:2 15:2 16:4 17:9 18:6 24:3 25:5 26:6 27:6 28:4 29:6 30:5 31:9 32:5 33:9 34:6 35:2 
0 0 0 0 0 0 0 0 0 0 0 0 0 0 0 0 0 0 0 0 0 0 0.1019130755575951 0 0 0 0 0 0 0 2:3 3:5 4:7 5:5 6:2 7:2 8:2 9:3 10:3 11:4 12:4 13:3 14:2 15:2 16:5 17:8 18:9 24:3 25:5 26:4 27:7 28:4 29:7 30:5 31:7 32:7 33:8 34:5 35:7 
0.01571639434006464 0.1259071590667863 0.2306626618631909 0.2014626420515555 0.09907852224107873 0.1780374702647029 0.1516259009677051 0.1706991538117266 0.1900859441672283 0.3015440903002899 0.1862092916905745 0.1802929382267471 0.1773378418705328 0.1855755827645293 0.1982444262671681 0.1582899452685215 0.192142357157114 0.1903544972415716 0.1933532466704956 0.1804029409863908 0.1803898992915002 0.182666888017078 0.3255801530689483 0.1677510984527916 0.1879230313796531 0.1691155661024376 0.1731347934839255 0.1565847799917255 0.1535868547904207 0.2328732304389117 2:4 3:6 4:3 5:6 6:2 7:2 8:3 10:2 11:2 12:2 13:3 14:2 15:3 16:8 17:5 18:6 19:1 24:4 25:4 26:7 27:5 28:3 29:6 30:5 31:6 32:4 33:6 34:4 35:6 
0.1200472357689435 0 0 0 0 0 0 0 0 0 0 0 0 0 0 0 0 0 0 0 0 0 0 0 0 0 0 0 0 0 2:3 3:7 4:6 5:3 6:3 7:2 8:2 9:3 10:3 11:2 12:3 13:3 14:2 15:2 16:4 17:7 18:7 24:2 25:3 26:5 27:6 28:4 29:7 30:5 31:10 32:8 33:3 34:7 35:2 
0.5671293251105376 0.1468420108688192 0.4590440279201799 0.2905281991622725 0.1938511707525735 0.2051082622757569 0.3129562553959003 0.200248350484978 0.1891169110920096 0.1848086413369248 0.2222417622582267 0.1792178134201843 0.1764641524684009 0.1821485919059951 0.1979045944991388 0.1577883313948313 0.195802319352569 0.1941452722650036 0.1925433338001213 0.1809592755904861 0.1808094680906354 0.209457931468939 0.3245864752059002 0.165808275065553 0.1869594843190541 0.2379153047494302 0.194585731517637 0.2955945004082293 0.2062633894985581 0.4177298088432652 2:3 3:6 4:6 5:3 6:2 7:4 8:3 9:1 10:3 11:2 12:4 13:2 14:3 15:3 16:6 17:4 18:5 24:2 25:3 26:5 27:6 28:5 29:5 30:5 31:5 32:8 33:4 34:6 35:4 36:1 37:1 
0 0.1132150144620874 0.2070716965188739 0.1163923786435562 0.09900400674832988 0.1676156756867549 0.21805595209634 0.1538040240476465 0.1769949340877779 0.1195676076673716 0.1752510030868333 0.1648256847346044 0.1663362020208148 0.1636145249991944 0.1862565971993537 0.1490802127918943 0.1686831639017734 0.1779420876981622 0.1817490263297265 0.1695929446906574 0.162985594139668 0.1900919671626479 0.2624224019568335 0.1546570227527336 0.1756117184923212 0.1386561209743338 0.1559295740026124 0.1220802947345441 0.1267039071523883 0.193192427973186 2:3 3:9 4:5 5:6 6:2 7:2 8:1 9:3 10:4 11:2 12:4 13:2 14:3 15:3 16:7 17:5 18:5 24:3 25:3 26:6 27:7 28:5 29:6 30:7 31:6 32:7 33:8 34:5 35:3 
0.1622222054548354 0.2609734641332756 0.4321290272708848 0.3830278733416663 0.1852706933273531 0.3617164459660814 0.3505141033611501 0.3514665957051673 0.3601496805383619 0.3105516051331555 0.3564082185513872 0.34095395969263 0.3344077762698366 0.3426450042514081 0.3736939058095423 0.299260507814283 0.3673407724945758 0.3604832853340064 0.3650010549980288 0.3408967774915334 0.3368310267052025 0.363026635009341 0.6615481383769477 0.3121822307861945 0.3544121784253239 0.3722312366035033 0.3458551472076271 0.4360988841021669 0.3392052297809396 0.2855563483348822 2:3 3:3 4:6 5:5 6:5 7:3 8:3 9:3 10:2 11:2 12:2 13:3 14:2 15:4 16:6 17:6 18:6 24:2 25:5 26:6 27:6 28:4 29:6 30:4 31:7 32:4 33:8 34:6 35:6 
0 0 0 0 0 0 0 0 0 0 0 0 0 0 0 0 0 0 0 0 0 0 0 0 0 0 0 0 0 0.02870066914058754 2:3 3:6 4:6 5:6 6:4 7:3 8:2 9:2 10:3 11:2 12:3 13:3 14:2 15:2 16:5 17:7 18:8 24:4 25:3 26:5 27:6 28:4 29:7 30:5 31:10 32:8 33:3 34:7 35:3 36:1 37:1 
0.1375434902403727 0.2098551499440179 0.2198431947937778 0.1789572894029571 0.1808770054493442 0.1904707324454044 0.1815511714002722 0.2724196172925686 0.2992923259454031 0.2274385513853905 0.2956229844595881 0.2801650185722192 0.2838860666119231 0.2809783113068407 0.3173738774378291 0.25355534020536 0.287308107381393 0.3034733133266899 0.3096276328720027 0.2887662393074472 0.2798098728743322 0.2899247732330493 0.1890885212648907 0.2646934183884488 0.299301109187764 0.2607764504796137 0.2752053320803359 0.2483261042001722 0.2636534850460228 0.2858456284313754 2:3 3:6 4:6 5:3 6:3 7:2 8:2 9:3 10:3 11:2 12:3 13:3 14:2 15:2 16:4 17:7 18:8 24:2 25:3 26:5 27:6 28:4 29:7 30:5 31:10 32:8 33:3 34:7 35:2 
0.296612070209881 0 0 0 0 0 0 0 0 0 0 0 0 0 0 0 0 0 0 0 0 0 0 0 0 0 0 0 0 0 2:3 3:5 4:7 5:4 7:3 8:2 9:3 10:3 11:3 12:4 13:2 14:3 15:2 16:6 17:6 18:7 19:1 20:1 21:1 24:4 25:4 26:3 27:5 28:4 29:5 30:7 31:10 32:7 33:7 34:6 35:4 
0.6915064283037663 0.5654831402551923 0.7625322036630576 0.6487902451858471 0.4665366668617793 0.5981506742514745 0.5953370907230684 0.7475675843740193 0.8067126881275334 0.5919945886577416 0.7968979109686579 0.7539820274558117 0.7589299378476441 0.7558075688257658 0.8478691462132767 0.6787347359362767 0.7747431111092877 0.8140355247070439 0.8271532637675985 0.7715766129932584 0.749445574831354 0.7888001398555243 0.7156285510668189 0.7067435027607226 0.7999366144711081 0.7205336560154866 0.7387724637971267 0.7457760083203715 0.6982274899542943 0.6437879093375092 2:3 3:3 4:6 5:4 6:3 7:3 8:4 9:2 10:3 11:3 12:2 13:3 14:4 15:1 16:8 17:5 18:7 24:4 25:4 26:3 27:3 28:6 29:4 30:7 31:6 32:5 33:10 34:6 35:6 
0.2303523539556256 0.3696919777540668 0.4648668658948036 0.4087367983020948 0.307157676250903 0.3953095758579139 0.3723608340530822 0.4873970395079772 0.5354948227343628 0.5276932324327261 0.5292164973031482 0.5043415501161151 0.5059183623335861 0.5074976757847273 0.5644941836583171 0.4517267240688918 0.5193428679386731 0.5411541503794325 0.5511029364789756 0.5143469135704107 0.501478728426851 0.5276659733575329 0.5529441865728261 0.4714946332836212 0.532897243444045 0.4738895009345532 0.4896069589489029 0.4695415144880151 0.4703547276487123 0.5144967392521997 2:3 3:5 4:5 5:6 6:2 7:2 8:3 10:2 11:2 12:2 13:3 14:2 15:3 16:7 17:5 18:5 24:4 25:7 26:1 27:5 28:3 29:6 30:5 31:6 32:4 33:6 34:4 35:6 
0.001521388611766244 0 0 0 0 0 0 0 0 0 0 0 0 0 0 0 0 0 0 0 0 0 0 0 0 0 0 0 0 0 2:3 3:8 4:5 5:6 6:1 7:2 8:1 9:3 10:4 11:3 12:3 13:3 14:2 15:2 16:4 17:9 18:6 24:3 25:3 26:5 27:6 28:4 29:7 30:5 31:10 32:8 33:7 34:6 35:1 
0.5177574247859396 0.1781473677650951 0.2886127426153942 0.1940147573936697 0.1352607971324915 0.1890825134834132 0.1785262839224256 0.232323060378668 0.2547940094499647 0.1833720809633818 0.2503854854977409 0.2340733314034831 0.2413739746996969 0.2383536013420561 0.2698495876243729 0.215533540082871 0.2436559069536649 0.2581443179484532 0.2629779615720403 0.2453660484655892 0.2371638235124775 0.2466314805100706 0.1844535558273891 0.2248671551175965 0.2544115479310243 0.2205138736309451 0.2315345853237189 0.2108999101884939 0.2127154654036491 0.1761911962416062 2:3 3:6 4:5 5:5 6:2 7:3 8:1 9:3 10:3 11:4 12:2 13:2 14:3 15:2 16:9 17:8 18:6 24:1 25:3 26:5 27:6 28:4 29:7 30:6 31:9 32:10 33:7 34:6 35:3 
0.2685745466172614 0.4451173712497628 0.5183516888631244 0.4395874358519223 0.3694438041166884 0.4548694992270143 0.4173720896769041 0.5999448210154048 0.6460555958062964 0.467841198526299 0.6382977945086958 0.6067973685046122 0.6095219663669959 0.6055722050677738 0.6816317744518455 0.5448773792654523 0.6256647525621528 0.6532166748009308 0.6643855301429137 0.6197515430128723 0.6018439008996557 0.6268144191949854 0.4456267760468546 0.5673043312078177 0.6439131614006057 0.5699477609072493 0.5928596994681529 0.568053952394396 0.5410072760594262 0.5118711436622633 2:3 3:4 4:3 5:6 6:2 7:2 8:3 10:2 11:3 12:2 13:3 14:3 15:4 16:6 17:7 18:7 24:1 25:6 26:3 27:7 28:4 29:5 30:7 31:4 32:6 33:7 34:4 35:6 
0.05269585038397382 0.2049016918884238 0.2369884759647882 0.1827370798640907 0.1643270512324448 0.2024424150423575 0.1835691133202162 0.2749182334911133 0.3013260359209276 0.2159057928458693 0.2948552320886274 0.282187175583516 0.2853824956276764 0.2834394706299172 0.3182244633122614 0.2544453440797635 0.2875968637727758 0.3046009702503797 0.3104768034695221 0.2896883258590553 0.2823826436792514 0.2911566704600458 0.2620975369390649 0.2649157576714396 0.3004703278961586 0.2592273220821662 0.2737148683884439 0.2524809572150956 0.2382497639268601 0.3078502121864128 2:3 3:4 4:3 5:6 6:2 7:2 8:3 10:2 11:3 12:2 13:2 14:2 15:1 16:8 17:6 18:9 24:3 25:3 26:5 27:4 28:6 29:4 30:4 31:6 32:6 33:6 34:5 35:6 
0.01361993653017151 0 0 0 0 0 0 0 0 0 0 0 0 0 0 0 0 0 0 0 0 0 0.003963607891691154 0 0 0 0 0 0 0 2:3 3:7 4:5 5:4 6:1 7:2 8:3 9:1 10:3 11:2 12:3 13:2 14:3 15:3 16:8 17:3 18:5 24:2 25:3 26:5 27:6 28:5 29:5 30:5 31:5 32:7 33:5 34:6 35:4 
0.7527715881180013 0 0 0 0 0 0 0 0 0 0 0 0 0 0 0 0 0 0 0 0 0 0 0 0 0 0 0 0 0 2:3 3:3 4:6 5:4 6:2 7:3 8:4 9:2 10:3 11:2 12:2 13:3 14:2 15:4 16:6 17:6 18:6 24:3 25:3 26:6 27:4 28:5 29:5 30:6 31:6 32:5 33:6 34:6 35:6 
0.2611251407747557 0.3363262454928898 0.4845669405241221 0.3500157206408209 0.2793245241714013 0.3727363747995672 0.3351737621285869 0.4444018682002016 0.4830508559700013 0.3791030081440389 0.4782956331929436 0.4517196632613597 0.4560407406337503 0.4568881898645174 0.5097654230803451 0.4078413371387857 0.4680735392497183 0.4887313928412314 0.4967603612002172 0.4637854345144868 0.4533036667969227 0.4706194798354739 0.4311132749411303 0.4246481320787707 0.4810315865502099 0.4296802897340186 0.4446305991640179 0.4246767733621908 0.4150413179311527 0.4627408333827983 2:3 3:8 4:5 5:6 6:3 7:3 8:1 9:3 10:3 11:3 12:3 13:3 14:2 15:3 16:6 17:9 18:7 21:1 22:1 23:2 24:5 25:3 26:5 27:6 28:4 29:7 30:5 31:10 32:8 33:8 34:7 35:3 36:1 37:3 
0.1647296307952811 0 0 0 0 0 0 0 0 0 0 0 0 0 0 0 0 0 0 0 0 0 0 0 0 0 0 0 0 0 2:4 3:5 4:6 5:4 6:2 7:1 8:3 9:2 10:3 11:2 12:3 13:1 14:3 15:4 16:5 17:7 18:5 19:1 24:4 25:4 26:3 27:5 28:4 29:7 30:4 31:8 32:7 33:5 34:6 35:4 
0.73526616505111 0.4965158832465224 0.8966314502493635 0.6072257299691311 0.4592953915414267 0.5212839602226812 0.4851386512528418 0.6468148988768543 0.6796262476923995 0.5691923296547771 0.6735468607880518 0.6349530052755432 0.6392169216138477 0.6489459127611171 0.7144863361242778 0.571095859841955 0.6654652676565832 0.6874280669951494 0.6972915944415512 0.6504663985535143 0.6382010550324677 0.6622569650035417 0.8126875035997968 0.5958369574434217 0.6743400959675991 0.6473916728248794 0.6400731081119353 0.7129301824683675 0.6415159695096875 0.7136592615516513 2:3 3:6 4:6 5:4 6:2 7:5 8:3 9:2 10:3 11:2 12:3 13:3 14:2 15:4 16:6 17:5 18:5 24:1 25:4 26:4 27:5 28:4 29:6 30:6 31:7 32:6 33:7 34:6 35:3 36:5 
0.01385731147526333 0.1020699147967319 0.09247503717169062 0.08251805069389309 0.08228755557577999 0.1445341814019976 0.06138857685482649 0.1330008653315252 0.1485808925539303 0.1024598015622123 0.1408505180945763 0.1352470076529535 0.1376809088361415 0.1363280579653152 0.1536204241033931 0.1233435306290261 0.1398110840276078 0.147234944950172 0.1504529679234652 0.139904807419071 0.1349835540676552 0.1429858846841753 0.09241507198379449 0.1281667685999777 0.1453699089133471 0.1282619808353861 0.1326767242766989 0.1255357930960015 0.1205864873649974 0.03076387646111514 2:3 3:8 4:5 5:6 6:3 7:3 8:2 9:3 10:4 11:3 12:3 13:4 14:2 15:2 16:5 17:9 18:8 24:7 25:3 26:5 27:6 28:4 29:7 30:5 31:10 32:8 33:8 34:7 35:3 
0.5965496531856924 0.6217591826660137 0.8430289505739679 0.6876454148179855 0.5229300523396204 0.6771927121542424 0.6042218584540336 0.8236013142472504 0.9073498047852275 0.7113051533905098 0.8851392379016074 0.8556720687834962 0.8463564879925284 0.8433151903392263 0.9455340475170843 0.7560062035066821 0.8718306407044647 0.9076383890501224 0.9225953534616392 0.8606395512909283 0.8382920998895311 0.8772441141817704 0.8100401948167226 0.788893090495089 0.8917426729565307 0.7961091566946104 0.8219259435885196 0.7773768309098427 0.775304842532433 0.9636725916651746 2:3 3:5 4:8 5:2 6:2 7:3 8:4 9:3 10:2 11:3 12:3 13:4 14:2 15:2 16:5 17:8 18:8 24:8 25:3 26:4 27:6 28:4 29:7 30:5 31:8 32:5 33:7 34:7 35:3 
0.3908727197962125 0.2428626960473324 0.3732033458558861 0.3014919470918471 0.1863439570881346 0.2829862227977544 0.3828786903214139 0.3343246334639002 0.3574437567045925 0.2509153134521919 0.3482365845033614 0.3454772994426972 0.3310254323343256 0.3301290576126583 0.3696016293429288 0.2961910080037861 0.3459605325024965 0.3554813707394071 0.3611693631910954 0.3374175555696711 0.3271346491685031 0.3468704103756256 0.3967433820473663 0.3092272116496985 0.3494122002632548 0.3150579605993618 0.3237250515557323 0.3028260991074836 0.3054829559803823 0.3736325850363373 2:3 3:6 4:4 5:3 6:4 7:1 8:4 10:5 11:4 12:3 13:3 14:3 15:1 16:7 17:7 18:7 24:5 25:4 26:3 27:7 28:4 29:6 30:7 31:7 32:6 33:6 34:6 35:4 
0.3176559774667892 0.001560649931746325 0.1112174668731304 0.1168075768660997 0 0.2074385470665705 0.4060602130874792 0.003645019876388177 0.02180695929427096 0 0.02192787160656547 0 0 0 0 0 0.005441955577665519 0 0 0 0 0.002339874589211899 0.1193159546238226 0 0 0 0 0.02553294321266616 0 0.07738042422956454 2:3 3:4 4:6 5:6 6:2 7:5 8:3 9:1 10:5 11:3 12:3 13:4 14:2 15:2 16:5 17:8 18:7 24:5 25:5 26:4 27:7 28:4 29:6 30:5 31:7 32:7 33:8 34:7 35:4 
0.5171289930150895 0.4238518755637736 0.6101778795816422 0.527162311833877 0.3492199459723042 0.4741988581685534 0.5243062025324546 0.5510131057414075 0.6011909959666297 0.4605196305233142 0.607544147889114 0.5640568576862631 0.5648767664354792 0.5631993494704938 0.6305049921903917 0.5043142629784385 0.5829506607571409 0.6066450037510104 0.6148879633570101 0.574925842188489 0.5575524371335318 0.590926184114258 0.6667412386211041 0.5260426813618224 0.5953771679667863 0.536902929949888 0.5491198174838448 0.5241997581764015 0.5123554654900451 0.6052583692465416 2:3 3:6 4:5 5:6 7:3 8:3 9:3 10:4 11:3 12:3 13:3 14:4 15:1 16:4 17:7 18:7 24:7 25:4 26:3 27:5 28:5 29:7 30:3 31:8 32:8 33:5 34:6 35:4 
-0.4042319126642999 0.3941049275589313 0.5897007891251394 0.4145718771545321 0.3145559689327122 0.4712012944155568 0.3622091226651741 0.4849300036389351 0.5263873398212082 0.4010679161768549 0.5168708407638823 0.4887166219632472 0.493482832068983 0.4933100806797026 0.5505754003639861 0.4412729081240162 0.5074881954754028 0.5284303297457499 0.5372265784758884 0.5020878287364897 0.4884668192079546 0.5074688981307761 0.5618248002200319 0.4599430273984038 0.5195235237775775 0.4685072374545071 0.4831049811085127 0.4622104663126187 0.4658069694220512 0.4457568134988564 2:3 3:4 4:7 5:4 6:3 7:2 8:4 9:4 10:5 11:3 12:2 13:2 14:3 15:4 16:8 17:3 18:5 21:2 22:1 24:4 25:2 26:8 27:2 28:5 29:5 30:5 31:10 32:7 33:9 34:6 35:3 36:2 37:1 
-0.4671651296038803 0.3268493432352382 0.5049892577561 0.3827286687304753 0.2837639846775992 0.4375454807722197 0.3512178544111179 0.4419096596300106 0.4880859424307373 0.378315149999422 0.4785203260845207 0.4585247843603328 0.4587809416305291 0.4596734458024017 0.5116223206253115 0.4101074270927079 0.4745936762275407 0.490730654225308 0.4996722348492729 0.4667112086970742 0.4532670096516905 0.4934949366570649 0.6720645164463216 0.4273340877255639 0.4832093012414929 0.4269491841730575 0.4442598279701654 0.4237800779224228 0.4104285695828702 0.4359049971667476 2:3 3:8 4:4 5:3 6:1 7:2 8:4 9:3 10:6 11:3 12:2 13:2 14:1 15:7 16:7 17:5 18:4 24:2 25:3 26:6 27:8 28:5 29:5 30:4 31:8 32:9 33:7 34:5 35:3 
-0 0.04861187422372632 0.04893970097540445 0.06441996171212232 0.02195827669906901 0.08108230019293039 0.05145981038292556 0.06696049576337687 0.0764243803902515 0.05843613748752812 0.07283306626580975 0.06766805869044114 0.06922079520586789 0.06933555509020078 0.0782197897329391 0.06300396607627007 0.07147143547680741 0.07318648859752737 0.0754885882246546 0.07063184868544094 0.06914872102264115 0.07029918050017155 0.02960084012687415 0.06365092075678179 0.07256048180209884 0.05969685003888499 0.06567247412759457 0.05815336014560896 0.04894861404229138 0.03594094502159811 2:3 3:4 4:8 5:4 6:3 7:2 8:4 9:4 10:4 11:1 12:3 13:1 14:3 15:3 16:6 17:6 18:4 24:5 25:4 26:8 28:5 29:4 30:6 31:7 32:7 33:9 34:6 35:2 
-0.181325688863208 0 0 0 0 0 0 0 0 0 0 0 0 0 0 0 0 0 0 0 0 0 0 0 0 0 0 0 0 0 2:3 3:8 4:3 5:5 6:1 7:2 8:5 9:2 10:6 11:2 12:2 13:4 14:1 15:5 16:5 17:5 18:5 24:2 25:3 26:6 27:6 28:5 29:4 30:6 31:8 32:9 33:7 34:5 35:3 
-0.5140518534006054 0 0.5034094610966948 0.2311279900178622 0 0.03006964322277917 0.09109961005328748 0 0 0 0 0 0 0 0 0 0 0 0 0 0 0 0.3967584510420517 0 0 0 0 0 0 0 2:3 3:7 4:4 5:4 6:2 7:3 8:4 9:3 10:5 11:3 12:3 13:2 14:3 15:3 16:6 17:6 18:3 24:3 25:2 26:6 27:6 28:4 29:4 30:5 31:6 32:6 33:11 34:7 35:4 
-0 0 0.06728829331148951 0.04135974996062353 0 0 0.2278932728300167 0 0 0 0 0 0 0 0 0 0 0 0 0 0 0 0 0 0 0 0 0 0 0 2:3 3:7 4:3 5:5 6:1 7:4 8:4 9:3 10:5 11:3 12:3 13:2 14:3 15:3 16:6 17:6 18:3 24:3 25:2 26:6 27:6 28:4 29:4 30:5 31:6 32:7 33:9 34:8 35:4 
-0 0 0.2290267533068907 0.06954178849233116 0.1290525801280591 0 0.05214946652616872 0 0.004290347195725739 0.0182806505056411 0.01404980671073813 0 0.006733850489025266 0.005392212262817674 0.004526214973003134 0.00302625482823834 0.003424190635053374 0.005814685932819741 0.005679487397993664 0.004631140888495974 0.004703112431828045 0.07957456298468339 0.1034278870132555 0.003391910324549603 0.004356544336989786 0 0.003676007935569199 0 0.05059539642790258 0 2:4 3:4 4:6 5:2 6:2 7:3 8:3 9:5 10:4 11:4 12:2 13:3 15:3 16:5 17:5 18:2 24:2 25:3 26:5 27:5 28:3 29:6 30:7 31:4 32:9 33:7 34:4 35:2 
-0.4428571889133557 0.2778135267071129 0.4028144718800208 0.321413066432665 0.2431777922402349 0.3471117548978632 0.3432563149795758 0.3747752225839268 0.4192771898926647 0.3165004505188623 0.4075990217145459 0.3864018355497485 0.3889562706266371 0.387741141996618 0.4341399514860891 0.3479372090082624 0.3994810096182154 0.4157924939067838 0.4233309681346584 0.3960094341518334 0.3840975884096168 0.4270542699893712 0.4002999314877389 0.3621277120267617 0.40968023155136 0.3593229931380523 0.3765187275400404 0.3415532955272614 0.3562248213827774 0.3719236676500535 2:3 3:4 4:7 5:3 6:3 7:2 8:4 9:4 10:4 11:5 12:3 14:3 15:3 16:7 17:5 18:6 19:1 24:4 25:3 26:8 27:3 28:4 29:7 30:7 31:8 32:8 33:9 34:4 35:2 
-0.4411641008697183 0 0.0162191023673677 0 0 0 0.1787754817472338 0 0 0 0 0 0 0 0 0 0 0 0 0 0 0 0 0 0 0 0 0 0 0 2:3 3:4 4:7 5:3 6:2 7:3 8:3 9:2 10:5 11:3 12:3 13:2 14:2 15:3 16:6 17:6 18:3 24:3 25:2 26:6 27:4 28:4 29:4 30:7 31:4 32:8 33:8 34:6 35:4 
-0.6589790710096968 0.09350548798283129 0.1864608848998121 0.2135134312643091 0.09198930761502976 0.1061450159267461 0.2158926328974925 0.1387650081699092 0.1394597103236388 0.1296359997352694 0.13528141501128 0.1360204895339224 0.1303174853192174 0.1352216611860165 0.1442758549591966 0.115964388073841 0.1423279529454986 0.1396610028861812 0.1414465661878499 0.1330142449092575 0.1300487361797848 0.1467928932493227 0.4213718460415664 0.1211801930041316 0.136858244290468 0.157516311922832 0.1327173142464831 0.1441015297964421 0.1354958538411895 0.1329013665170332 2:3 3:7 4:4 5:3 6:2 7:1 8:5 9:1 10:6 11:2 12:3 13:2 14:3 15:2 16:6 17:5 18:3 24:3 25:2 26:6 27:6 28:4 29:4 30:5 31:6 32:6 33:5 34:8 35:3 
-0.6928977720498183 0.1758382113950997 0.3454507514916216 0.2876547959625999 0.1276306624197717 0.1923388709697632 0.2024384764784367 0.1493939527539457 0.1599697236173554 0.1298608987322478 0.1808359165539073 0.1453505966336264 0.1497819325295943 0.1499609007674201 0.167460795752034 0.1340921969552869 0.1483044057248911 0.159228067863241 0.1632457981408136 0.1523135645667369 0.148259361076265 0.1692127189123968 0.5208141714368577 0.1388918175553 0.1578720161531525 0.1345641593581209 0.1399136822371652 0.1814043176733721 0.1508462290042305 0.2206712884276122 2:3 3:6 4:6 5:4 6:2 7:4 8:3 9:5 10:3 11:3 12:2 13:1 14:3 15:4 16:4 17:7 18:3 24:3 25:2 26:5 27:5 28:5 29:6 30:5 31:6 32:8 33:7 34:8 35:3 
-0.1605582549368159 0.1748210205044317 0.2605721573092215 0.223297398660001 0.1297126876343084 0.1879203532290759 0.2041100093554836 0.2322638264655749 0.2356478777545885 0.1736775148867669 0.2303001493545864 0.2213131689749424 0.2214870150572026 0.2192886360565988 0.2470261790143699 0.1986012892653425 0.2268297016613246 0.2384241503248915 0.2415525426646636 0.2251586821022369 0.2184940876221001 0.230439328544101 0.2853177205889235 0.2067358303511634 0.2336217746874998 0.2182747757229005 0.2175938061528574 0.237838591702022 0.214965788109269 0.2081638638137784 2:3 3:3 4:5 5:4 6:2 7:3 8:5 9:4 10:5 11:5 12:2 13:1 14:3 15:4 16:8 17:4 18:6 24:2 25:2 26:7 27:4 28:6 29:7 30:7 31:7 32:8 33:9 34:5 35:3 
-0.08684127787858513 0.09501779339853923 0.1432457629078134 0 0.08578368273473937 0.112780893804305 0.01459234041230974 0.1217290975746147 0.1406770512444477 0.1071926796257895 0.1410399508144009 0.1283031158256092 0.1307228570928474 0.1303832359224773 0.1467865474865134 0.1178243672713909 0.1318790707783268 0.1390417213182909 0.1432035758131562 0.1333322379185907 0.1300350715061045 0.1334268080691651 0.01535753679038841 0.1226602466362587 0.1392347442778023 0.1147992304072074 0.1253226308358416 0.1154270185011771 0.1192819378552972 0.1175704359981873 1:1 2:5 3:9 4:4 5:5 6:2 7:3 8:5 9:2 10:6 11:2 12:2 13:2 14:2 15:3 16:6 17:5 18:3 24:3 25:3 26:5 27:7 28:4 29:4 30:6 31:7 32:8 33:10 34:8 35:2 
-0.1034460797037345 0 0 0 0 0 0 0 0 0 0 0 0 0 0 0 0 0 0 0 0 0 0 0 0 0 0 0 0 0 2:3 3:5 4:5 5:3 6:1 7:4 8:5 9:4 10:5 11:2 12:2 13:2 14:1 15:4 16:4 17:7 18:5 24:2 25:3 26:4 27:7 28:5 29:5 30:8 31:7 32:7 33:6 34:4 35:4 
-0 0 0.1054889209813795 0.03748217500924095 0 0.03521844148177761 0.01532188970892747 0 0 0 0 0 0 0 0 0 0 0 0 0 0 0 0.05765336720526026 0 0 0 0 0 0 0.08129672185346527 2:4 3:5 4:5 5:3 6:2 7:4 8:5 9:4 10:6 11:2 12:2 13:2 14:1 15:3 16:6 17:7 18:5 24:3 25:5 26:4 27:7 28:5 29:5 30:8 31:7 32:7 33:6 34:8 35:1 
-0.240554055936713 0.2531324608787758 0.3121393813298177 0.3136408530742204 0.198446961280226 0.2942771481436751 0.294302371457597 0.3258024606277206 0.3497704623538014 0.2583606672523741 0.3451502028211172 0.3256359476498463 0.3283085943854309 0.326703467853138 0.366133504020859 0.2937535861488876 0.3368289043266959 0.3506836941575136 0.3569203298261922 0.3331853356827915 0.3234409864957902 0.3440795907926224 0.3183293365119571 0.3052728395244835 0.3449358584328212 0.3074049111492334 0.3183692857478982 0.3075512164144709 0.2832228215080589 0.2815203767194888 2:3 3:5 4:5 5:5 6:2 7:2 8:5 9:3 10:5 11:3 12:1 13:3 14:3 15:3 16:6 17:6 18:4 24:3 25:4 26:8 28:5 29:4 30:6 31:7 32:7 33:11 34:5 35:4 
-0.1606216007895712 0 0 0 0 0 0 0 0 0 0 0 0 0 0 0 0 0 0 0 0 0 0 0 0 0 0 0 0 0 2:3 3:4 4:7 5:4 6:2 7:2 8:5 9:3 10:4 11:2 12:3 13:1 14:3 15:3 16:7 17:6 18:6 24:5 25:3 26:8 27:2 28:5 29:5 30:5 31:8 32:7 33:8 34:7 35:2 
-0.5360693010932348 0 0 0 0 0 0 0 0 0 0 0 0 0 0 0 0 0 0 0 0 0 0.2283682599019015 0 0 0 0 0 0 0 2:4 3:5 4:5 5:3 6:1 7:2 8:4 9:4 10:6 11:2 12:2 13:3 14:1 15:4 16:5 17:7 18:5 19:1 24:4 25:4 26:4 27:6 28:5 29:5 30:8 31:7 32:6 33:8 34:4 35:3 
-0.35774071253311 0.4794151210071709 0.9087232509782783 0.6090861685623085 0.4465466905519268 0.6461518661237357 0.601997499862441 0.6184509591819745 0.68442693147698 0.5085081766053385 0.6650337604898621 0.6405858476123995 0.6379473760610125 0.6301909290758968 0.7070130512786621 0.566841736033351 0.6583689544165959 0.6846781489213147 0.6899368221600088 0.6469993260467428 0.6252617892658834 0.678560207008057 0.762017648217606 0.5904418016724241 0.6669303061476175 0.6060704614015459 0.6164173812825187 0.5965733188140515 0.5898350809479545 0.6226939604243361 2:8 3:7 4:3 5:4 6:3 7:2 8:6 9:2 10:6 11:3 12:2 13:3 14:2 15:2 16:6 17:4 18:3 24:4 25:3 26:6 27:7 28:4 29:5 30:5 31:7 32:8 33:7 34:8 35:2 
-0.04940556078575224 0.1500326881413554 0.2127869916558201 0.1363860077096936 0.1526127263366647 0.1428361637132568 0.08498269604896354 0.2019814030082114 0.2233784249539312 0.1966759919377854 0.2208280587537952 0.2088795114234345 0.2125320368884299 0.2115240339517854 0.2368896365806181 0.1898659976367936 0.2159783436759905 0.2267672361541105 0.2304191080406919 0.216402522542531 0.2096755529248381 0.2111057206374516 0.1704199703053363 0.1979869557766801 0.2224917777640942 0.1981317675724291 0.2051259671725756 0.1851039728079367 0.2377009014434808 0.1701974407915048 2:3 3:5 4:7 5:5 6:1 7:3 8:5 9:3 10:4 11:3 13:2 14:1 15:3 16:5 17:4 18:4 24:4 25:4 26:8 28:5 29:4 30:6 31:7 32:7 33:7 34:5 35:1 
-0.09875235832154622 0 0 0 0 0 0 0 0 0 0 0 0 0 0 0 0 0 0 0 0 0 0 0 0 0 0 0 0 0 2:3 3:4 4:6 5:4 6:3 7:2 8:4 9:4 10:4 11:3 12:3 13:2 14:2 15:3 16:7 17:5 18:6 24:2 25:3 26:6 27:2 28:5 29:5 30:7 31:9 32:9 33:8 34:6 35:3 
-0 0.2138896317447139 0.4492237952048254 0.4081662350587847 0.1694018337537203 0.3096521614654685 0.3040884625959334 0.3008096560613529 0.3198778425573168 0.2321964496564304 0.3223367710851681 0.2997857594143983 0.2990226391497701 0.2979950316325159 0.3344132975333176 0.2671367181380488 0.3054094037798849 0.3205265263748016 0.3265323740115068 0.3046184101145237 0.2948925141508106 0.3501674944689142 0.328787917217954 0.2788673999868128 0.3156119982334087 0.2837777174689576 0.2891222615703505 0.2993363328775467 0.2574935864069536 0.2261842202010156 2:3 3:7 4:4 5:3 6:1 7:3 8:7 9:3 10:7 11:3 12:3 13:2 14:2 15:3 16:6 17:6 18:3 24:3 25:2 26:6 27:6 28:4 29:4 30:5 31:6 32:7 33:10 34:8 35:5 
-0 0 0.2621675394964186 0 0 0 0.1073835971752904 0 0 0 0 0 0 0 0 0 0 0 0 0 0 0 0.0245803454540282 0 0 0 0 0 0 0 2:3 3:3 4:7 5:4 6:3 7:2 8:4 9:4 10:4 11:5 12:2 13:2 14:2 15:5 16:6 17:7 18:4 24:3 25:4 26:8 27:2 28:5 29:5 30:7 31:8 32:8 33:8 34:6 35:3 
-0 0 0 0 0 0 0.0887288191852751 0 0 0 0 0 0 0 0 0 0 0 0 0 0 0 0 0 0 0 0 0 0 0 2:4 3:4 4:6 5:2 6:2 7:3 8:3 9:5 10:4 11:6 12:2 13:3 14:1 15:3 16:5 17:5 18:4 24:5 25:3 26:6 27:5 28:4 29:5 30:5 31:7 32:9 33:6 34:5 35:2 
-0.2557898533968624 0.4490833391088489 0.5293468199835769 0.4653886715653001 0.3387132332091945 0.4911582086333892 0.4381534153883405 0.5343959733757057 0.578499847943817 0.4374111261963934 0.5720011445954251 0.5379640645747176 0.5426321065667401 0.5396039992587918 0.6046343674446363 0.4851425367107008 0.5580785026409572 0.581374277602382 0.5903873221475919 0.5512349870309181 0.535288281394895 0.5595170686917076 0.5484292353960564 0.5052797587777774 0.5710110935034963 0.5124116400956751 0.5294297076165048 0.5019719892208394 0.4985154714664801 0.480030778529347 2:3 3:8 4:4 5:3 6:2 7:2 8:6 9:3 10:6 11:3 12:2 13:2 14:2 15:5 16:4 17:5 18:6 19:1 24:2 25:4 26:6 27:5 28:5 29:4 30:4 31:10 32:7 33:10 34:6 35:4 
-0.490113663675903 0 0 0 0 0 0 0 0 0 0 0 0 0 0 0 0 0 0 0 0 0 0 0 0 0 0 0 0 0 2:3 3:5 4:7 5:3 6:2 7:1 8:5 9:2 10:5 11:1 12:2 13:2 14:2 15:4 16:6 17:5 18:3 24:3 25:2 26:6 27:5 28:5 29:5 30:6 31:5 32:5 33:7 34:7 35:2 
-0.2943912334738915 0.3109433405182249 0.2793067987772804 0.2982143900785536 0.2584737546067927 0.3220630226571121 0.278964568446916 0.3981742563249431 0.435421543058086 0.3371137367930193 0.4277390039433839 0.4056788223495101 0.4095246136591962 0.4074946739151255 0.4562852333355142 0.3666077311053992 0.4196097411765121 0.4375680887243348 0.4459989223391276 0.4162700623829093 0.4045387986440355 0.4108443387462913 0.3424388135149697 0.3817717591834325 0.4316587658656116 0.3814205750155061 0.3970938756022371 0.3764442043201437 0.3705652606383014 0.3585598531550348 2:3 3:4 4:7 5:5 6:2 7:2 8:4 9:3 10:4 11:2 12:1 13:1 14:4 15:2 16:6 17:5 18:4 24:2 25:4 26:8 28:5 29:4 30:6 31:7 32:7 33:6 34:8 35:2 
-0.2614540878780506 0.2579173227178708 0.3628363463489743 0.2956112556412952 0.2306546408735582 0.3535206646232178 0.2258227154037334 0.3489836671550644 0.3890848077785905 0.2921035697016082 0.3800672107786545 0.3613618242048436 0.3645438403319041 0.3633180150104702 0.4067721049855499 0.3263048523964353 0.371768898166251 0.3907916113469364 0.3966121903312797 0.3703236758303211 0.359511987892557 0.3822064588261754 0.3612162466156564 0.3396459776103957 0.3843200774163152 0.3352911069588266 0.352476016888178 0.3352343424610567 0.3153842249673262 0.3267352979843475 2:3 3:5 4:7 5:5 6:1 7:3 8:5 9:3 10:4 11:4 12:2 13:3 14:2 15:2 16:9 17:4 18:4 24:4 25:2 26:8 27:2 28:4 29:5 30:7 31:7 32:7 33:10 34:7 35:3 
-0.1723552439395995 0.1452659410167421 0.06658293959435728 0.1481033599165701 0.1346492794659148 0.122192501484315 0.1911040371810029 0.190980208477945 0.2103420599209442 0.1635763189208907 0.2096710478693474 0.1982905807546332 0.1998254994222695 0.1967129420976604 0.2223808270368713 0.1781479607350676 0.2040770414142807 0.2133837056623073 0.2185160505417032 0.2030550902802731 0.1968166229634652 0.2218292638643474 0.1316292503872268 0.1875140113719672 0.2110352125342876 0.1929281554074293 0.1944502768694718 0.1838680430280262 0.2220724562035578 0.1681092342512359 2:3 3:3 4:7 5:4 6:2 7:2 8:4 9:4 10:4 11:3 12:2 13:1 14:3 15:2 16:6 17:4 18:4 24:2 25:4 26:8 28:5 29:4 30:6 31:7 32:7 33:9 34:3 35:3 
-0.05353891673374801 0.1256494124329905 0.1189698923293493 0.07059183600126011 0.08285958887064057 0.1398680398718431 0.1377480059076318 0.1331264461996915 0.1472348141920964 0.101324022704278 0.1388935303807786 0.1345392741178512 0.137067397423925 0.1358700535968599 0.153339947179324 0.1230762121742117 0.1381971096351275 0.1460251342931757 0.1501398688033261 0.1394561038506138 0.1360915534030801 0.1443761912629483 0.04831813548026014 0.1277329515928286 0.1455720350390834 0.115721331175663 0.1276824587321846 0.1082369773188986 0.1119846089144445 0.1028640292184275 2:3 3:7 4:4 5:3 6:3 7:2 8:4 9:2 10:6 11:3 12:2 13:1 14:3 15:4 16:6 17:5 18:3 19:3 24:3 25:2 26:6 27:6 28:4 29:5 30:5 31:7 32:11 33:6 34:7 35:2 
-0 0 0.4266072988664931 0 0 0 0 0 0 0 0 0 0 0 0 0 0 0 0 0 0 0 0 0 0 0 0 0 0 0 2:3 3:7 4:3 5:3 6:3 7:2 8:5 9:2 10:6 11:3 12:3 13:2 14:2 15:3 16:6 17:6 18:3 24:3 25:2 26:6 27:6 28:4 29:4 30:5 31:6 32:8 33:9 34:4 35:4 36:1 
-0.7365550208275421 0 0 0 0 0 0 0 0 0 0 0 0 0 0 0 0 0 0 0 0 0 0 0 0 0 0 0 0 0 2:3 3:6 4:4 5:4 6:2 7:3 8:5 9:2 10:5 11:3 12:3 13:2 14:2 15:3 16:5 17:7 18:5 24:2 25:4 26:5 27:5 28:5 29:4 30:5 31:8 32:8 33:8 34:6 35:4 
-0.1843938790635608 0 0 0 0 0 0 0 0 0 0 0 0 0 0 0 0 0 0 0 0 0 0 0 0 0 0 0 0 0.07194340395486518 2:3 3:5 4:7 5:4 6:1 7:4 8:5 9:4 10:5 11:2 12:2 13:1 14:2 15:3 16:5 17:8 18:4 19:1 24:4 25:2 26:5 27:7 28:5 29:5 30:8 31:7 32:7 33:6 34:6 35:4 
-0.1701182155885748 0.1107164483338842 0.4427903980220332 0.1939036936162169 0.1073958063736124 0.1572099834432932 0.277086406374446 0.1601310568376373 0.1812538541016678 0.1490149405667565 0.1977437107901114 0.1717777471350995 0.171944259759496 0.1691807881469601 0.1919845053505308 0.1536301898381211 0.176709263353273 0.1830696835882098 0.1865579357836745 0.1741462040054355 0.1682073926653737 0.2041808162578295 0.1348449566128921 0.1606452145593438 0.1805435673178164 0.1693023905942986 0.1650949506251512 0.1709692857534976 0.1739031497651142 0.1556259722172895 2:3 3:6 4:4 5:4 6:2 7:3 8:5 9:2 10:5 11:3 12:1 13:2 14:3 15:1 16:6 17:5 18:3 19:1 24:3 25:2 26:6 27:6 28:4 29:4 30:5 31:6 32:10 33:4 34:6 35:3 
-0.1839640732233707 0.1378410346509849 0.1520655219937867 0.184113486822663 0.1256684499209582 0.1727551063754755 0.1991142660774486 0.2204396970726396 0.234518144398604 0.1755487665580926 0.231754901825552 0.2226440174615265 0.2203805576424956 0.219238205859921 0.2468608498147804 0.1968645762517295 0.2278115862452186 0.236123724740273 0.2400227400701087 0.2242461658983616 0.2186728077972467 0.2070306632006944 0.1740147058629469 0.2063529889592436 0.2324208626137373 0.2106328924658075 0.2215417667679841 0.2068535083304567 0.2437579584055576 0.2584390048110132 2:4 3:3 4:5 5:2 6:2 7:3 8:4 9:5 10:4 11:4 12:2 13:3 14:1 15:2 16:3 17:6 18:4 19:2 20:1 24:1 25:3 26:5 27:5 28:4 29:7 30:6 31:7 32:9 33:6 34:5 35:2 
-0.001075724637043899 0.2187651249084976 0.2586413047696005 0.2711522397875401 0.191904725542155 0.2112479087539018 0.3348591899372851 0.2637702874092593 0.2849483516534405 0.2071193685233538 0.3158516339505992 0.2617808721629307 0.2686155719799785 0.2658178852039312 0.2994698699619329 0.2397473251532904 0.2732176417594037 0.2880559989769221 0.2918746333908856 0.2728449539361973 0.2643626817705702 0.2896520232896463 0.225364066454294 0.2499703432691497 0.2827799612189517 0.2548420739213225 0.2599695262486928 0.2376899358163546 0.2336415795467931 0.187207646395554 2:3 3:5 4:5 5:4 6:1 7:3 8:5 9:4 10:6 11:3 12:3 14:4 15:4 16:5 17:4 18:3 24:1 25:3 26:3 27:6 28:4 29:5 30:8 31:7 32:10 33:6 34:6 35:3 
-0.1865913962284633 0.3144995612659711 0.3119053547599713 0.3488932328126433 0.2257265550801187 0.358395052187562 0.4153499639586901 0.4615685230337708 0.500537244491479 0.3734955821095656 0.487292929792706 0.4755842272194565 0.4695746170003514 0.4680127754488566 0.5248250311430222 0.4222345785708183 0.481745761958325 0.5033921362127464 0.5117328269170519 0.4784214543678414 0.463805298853592 0.5014647705222557 0.4036635077231866 0.439027138355298 0.4952050231552129 0.4402954130285006 0.453777340629108 0.4337980913892836 0.3902612359675733 0.4033762216817515 2:4 3:4 4:5 5:2 6:2 7:3 8:3 9:4 10:5 11:4 12:2 13:3 15:2 16:6 17:5 18:2 24:1 25:3 26:5 27:5 28:3 29:6 30:7 31:4 32:9 33:7 34:4 35:2 
-0.6125310943469855 0.6042017162871523 1 0.6897262719339097 0.5788878098722372 0.6954760565858174 0.6392450117431451 0.7980420454231771 0.8765976232267329 0.6772927830323409 0.8614228488390519 0.8194593471768583 0.8228981185109819 0.8188947237278471 0.9161204543152511 0.7344273865856925 0.8420852396526911 0.8949324477980916 0.8944667681309302 0.8366261091005335 0.8118972170815372 0.8572299933427628 0.9539503363578672 0.7671831310887279 0.8652126811010645 0.7769185336520167 0.7995446556220059 0.7582410498686216 0.7901923993211109 0.8386705523035424 2:8 3:4 4:7 5:4 6:3 7:2 8:4 9:4 10:4 11:2 12:2 13:1 14:2 15:3 16:4 17:7 18:4 24:4 25:5 26:8 27:1 28:5 29:5 30:6 31:8 32:8 33:7 34:5 35:3 
-0 0 0.1020974714228251 0 0 0 0.04619791379234824 0 0 0 0 0 0 0 0 0 0 0 0 0 0 0 0 0 0 0 0 0 0 0 2:3 3:7 4:3 5:4 6:1 7:2 8:5 9:2 10:5 11:5 12:1 13:2 14:2 15:4 16:5 17:6 18:4 24:3 25:2 26:6 27:6 28:4 29:4 30:5 31:6 32:9 33:9 34:4 35:3 
-0.5707423254599991 0.6681680402578126 1 0.9516008048495548 0.5454248098772645 1 1 0.8951929913970065 0.9743299265530876 0.7150939601875371 0.9589446865098565 0.9027114288194121 0.8812453054402503 0.8766702617109482 0.9827174705591835 0.7878975990716767 0.9691969378742892 0.9595317335076568 0.9592955714190384 0.8975342261509598 0.8696540392173522 0.933635677929173 0.9215847568028597 0.8242661913782539 0.9280200380758015 0.8742343586098347 0.8758786311752064 0.867610539944786 0.8502047481645071 0.7479585721564994 2:3 3:4 4:4 5:5 6:2 7:6 8:6 9:5 10:5 11:3 12:4 13:2 14:2 15:4 16:5 17:6 18:5 24:8 25:4 26:4 27:7 28:5 29:5 30:8 31:7 32:7 33:6 34:6 35:3 37:1 
-0 0.1509538419454083 0 0.05051820016758931 0.1474364972941809 0.1153775355819949 0 0.2169233417941619 0.244815839950862 0.1806824787091945 0.2349850045713263 0.2268761293680762 0.2320673704474436 0.226153415679195 0.2580844220888567 0.2072868180238466 0.2324764576733245 0.2469591799796643 0.2525381083000366 0.2351787230814972 0.2272857306597264 0.2148951795246575 0 0.2170963321171233 0.2432066733853147 0.207325989980502 0.2177246855992646 0.1928562078734458 0.2442404356272371 0.1050582061736518 2:3 3:5 4:5 5:3 6:2 7:3 8:5 9:4 10:6 11:1 12:2 13:1 14:1 15:3 16:4 17:7 18:4 24:1 25:3 26:4 27:7 28:5 29:5 30:8 31:7 32:7 33:6 34:5 35:1 
-0.1200856997911159 0.2150842140481833 0.4119841432130251 0.2830879374991566 0.1917253450368152 0.2586273757262286 0.2258024595259933 0.2820397886040583 0.3068140514819709 0.2331398535967806 0.3025021647764966 0.2864508634416174 0.2893882627517356 0.287429408148573 0.3230547840542344 0.2591020858572448 0.2965750119746748 0.3107532502132351 0.3150179961124657 0.2943725743431609 0.2852763735234388 0.3066972480241688 0.3183429950413316 0.2697512895225584 0.30448380364239 0.276892960449689 0.2808498133067241 0.2654309792223244 0.2707980735624014 0.2600366646212526 1:4 2:4 3:8 4:4 5:3 6:2 7:2 8:6 9:3 10:6 11:3 12:2 13:2 14:2 15:4 16:5 17:5 18:3 24:3 25:3 26:5 27:6 28:4 29:6 30:5 31:8 32:8 33:10 34:6 35:4 
-0 0 0.1842275887421576 0.09517575915037656 0.01231231188602775 0 0 0.02971730056775879 0.02866639775893798 0.04447682043470441 0.01626179210658015 0.03232032631753293 0.0295759878202505 0.03347980140469115 0.03314078926286847 0.02727271875013252 0.02933741829967911 0.03068851337644835 0.03275396430657086 0.03007692219623926 0.03086239129717739 0.03339935418635066 0.1569683222041791 0.02991998369560412 0.03244452999973944 0.04422518434802113 0.03081056877433336 0.03662531548642398 0.05230320213503946 0.1021359941940183 2:4 3:4 4:5 5:2 6:2 7:3 8:3 9:5 10:4 11:3 12:2 13:1 14:3 15:2 16:7 17:7 18:2 24:4 25:2 26:5 27:4 28:4 29:7 30:5 31:6 32:8 33:7 34:5 35:2 
-0 0 0 0 0 0 0.3538320286042361 0 0 0 0 0 0 0 0 0 0 0 0 0 0 0 0 0 0 0 0 0 0 0 2:3 3:5 4:4 5:4 6:1 7:3 8:5 9:4 10:6 11:2 12:3 13:2 14:1 15:4 16:4 17:8 18:5 24:3 25:4 26:4 27:7 28:5 29:5 30:8 31:7 32:7 33:6 34:5 35:3 
-0.563525899144779 0.6553300615750414 0.9347511566105435 0.752965645292396 0.5837583634441097 0.6990955055286838 0.7059840422698686 0.862489353414762 0.9384495042489685 0.732623072997587 0.9250026733141374 0.8779703293976374 0.883405744901318 0.8823736828047236 0.9843888070393482 0.7892711323315137 0.9049207545714676 0.9461558314307947 0.9611023997342294 0.8979401471120343 0.8726953596753773 0.9328064479651094 0.913435108920668 0.8235343591042377 0.9295647349083238 0.8431349386721093 0.861745160259536 0.8328093256660459 0.857231842411986 0.7784191176397386 2:3 3:6 4:7 5:1 6:3 7:1 8:4 9:3 10:5 11:1 12:2 13:2 14:2 15:4 16:6 17:4 18:3 24:3 25:3 26:7 27:3 28:7 29:1 30:7 31:5 32:5 33:7 34:7 35:2 
-0.14338452891677 0.007467551735739334 0 0 0 0 0 0 0 0 0 0 0 0 0 0 0 0 0 0 0 0 0.04802749415358529 0 0 0 0 0 0 0.00942830802116164 2:4 3:4 4:6 5:2 6:3 7:2 8:6 9:3 10:4 11:4 12:2 13:3 14:1 15:2 16:6 17:4 18:4 24:2 25:3 26:4 27:5 28:4 29:4 30:5 31:10 32:7 33:7 34:7 35:2 
-0 0 0.003645358991169723 0.0117026186019707 0 0.01518788626637922 0 0 0 0 0 0 0 0 0 0 0 0 0 0 0 0 0.1859687627070036 0 0 0 0 0 0 0 2:4 3:5 4:5 5:3 6:1 7:4 8:5 9:4 10:6 11:3 12:1 13:3 15:5 16:6 17:8 18:4 24:4 25:4 26:4 27:7 28:5 29:5 30:8 31:7 32:7 33:6 34:7 35:3 
-0.09383019570778275 0 0.1073110932039836 0.05780818154056192 0 0 0 0 0 0 0 0 0 0 0 0 0 0 0 0 0 0 0.04209107773281139 0 0 0 0 0 0 0 2:3 3:4 4:6 5:4 6:2 7:3 8:4 9:4 10:3 11:3 12:2 13:2 14:2 15:4 16:4 17:6 18:4 24:2 25:4 26:8 28:5 29:4 30:6 31:7 32:7 33:7 34:6 35:4 
-0.2032372526336038 0.1428458387402634 0.2162548116640451 0.1930819434899506 0.123542555544654 0.1093982672336418 0.2596226745740851 0.1845220656457921 0.1953815255370451 0.1561269999540035 0.1955641100053685 0.1853727347467687 0.1856408993520711 0.1843430307950507 0.207013909075254 0.1659699580569326 0.1927367848274805 0.1999275994571537 0.2018723410613096 0.1881815233629012 0.1830306349246446 0.2483487058362291 0.2089661226939304 0.172698123166366 0.1953889056225859 0.2060447413021065 0.1909571973395904 0.1916243835047369 0.2198640694197444 0.149067118601803 2:2 3:5 4:4 5:4 6:2 7:1 8:5 9:5 10:4 11:2 12:3 14:3 15:2 16:6 17:3 18:5 24:2 25:3 26:6 27:3 28:4 29:3 30:7 31:6 32:7 33:8 34:5 35:2 
-0 0 0 0 0 0 0.02670802926304455 0 0 0 0 0 0 0 0 0 0 0 0 0 0 0 0.01129666800969202 0 0 0 0 0 0 0 2:3 3:8 4:3 5:5 6:1 7:2 8:5 9:2 10:6 11:3 12:3 13:2 14:2 15:3 16:6 17:7 18:4 24:3 25:3 26:5 27:6 28:5 29:3 30:5 31:8 32:8 33:9 34:6 35:4 
-0 0.07462281012280142 0.09702833693155559 0.01589567575850558 0.04866581598240744 0.01829421254134593 0.08717609742338074 0.09988494530414238 0.1148454073720306 0.08248242658369176 0.1375983130451586 0.1069818611512472 0.1113202421703256 0.1082739567018048 0.1244326826267838 0.1002922482069008 0.1074074473874706 0.1186763922230662 0.1213571763283134 0.1128317191080448 0.108795204835729 0.09993159550141019 0.03915902305555795 0.1043587849882723 0.1163726306544694 0.0842226617525994 0.1012347260507461 0.07189276179544905 0.08310549582297522 0.04590522316715506 2:3 3:8 4:3 5:5 6:1 7:2 8:5 9:2 10:6 11:3 12:2 13:1 14:2 15:4 16:6 17:6 18:3 24:3 25:2 26:6 27:6 28:4 29:4 30:5 31:6 32:10 33:7 34:8 35:1 
-0.02520463621584642 0.2364992236208345 0.2365601223563713 0.1715588530173689 0.2660691431447172 0.1997670949944026 0.08948792909171731 0.3072914756049763 0.3411991739393499 0.2537903058036448 0.3334174049900816 0.3153998183008759 0.3240743032885964 0.3222392759306482 0.3631287470806527 0.2913161216215521 0.3256578372241483 0.3461295217809673 0.3543081578719298 0.3301717520144241 0.3205231353414367 0.3245019178260623 0.2076940239632947 0.3035825029387496 0.3420727101076317 0.2835004947768683 0.3074537183093941 0.270803490526755 0.2807465394492502 0.2636212462837759 1:1 2:6 3:4 4:6 5:2 6:2 7:3 8:4 9:6 10:6 11:4 12:2 13:3 14:1 15:2 16:4 17:5 18:4 24:2 25:1 26:6 27:5 28:5 29:5 30:7 31:10 32:9 33:7 34:6 35:2 
-0.4198001331290275 0.4663249221523956 0.5441766424888409 0.4576305046393233 0.3720440341666595 0.5507700514783971 0.5169464157820068 0.6184016530921975 0.6723020177189474 0.5055404706005996 0.6613235783369079 0.6281565743151281 0.6303396621304104 0.6274562823322384 0.7037387388287247 0.5651585049048014 0.6437281752527307 0.6742228121523953 0.6869523680881301 0.6413891402366099 0.6225917683141041 0.642649011254987 0.5859181895972034 0.5874949133340818 0.6646402743070335 0.5799281017643279 0.6117306118923311 0.5767684129059759 0.5591668516610592 0.584212281279587 2:3 3:5 4:5 5:3 6:2 7:3 8:5 9:4 10:6 11:6 12:1 13:3 14:1 15:5 16:7 17:6 18:5 24:3 25:3 26:4 27:8 28:4 29:6 30:8 31:9 32:10 33:5 34:7 35:3 
-0.4756015388640911 0 0 0.00162790281583611 0.006884283552608825 0 0.04518178220544235 0 0 0 0 0 0 0 0 0 0 0 0 0 0 0 0.07163480836370545 0 0 0 0 0 0 0.03665561045124703 2:4 3:4 4:5 5:2 6:2 7:3 8:3 9:4 10:5 11:3 12:3 13:1 14:3 15:1 16:7 17:5 18:4 24:2 25:2 26:6 27:5 28:5 29:6 30:7 31:5 32:8 33:5 34:6 35:2 
-0.06051796585632618 0 0 0 0 0 0.6531615876702451 0 0 0 0 0 0 0 0 0 0 0 0 0 0 0 0 0 0 0 0 0 0 0 2:4 3:5 4:7 5:2 6:3 7:4 8:4 9:3 10:6 11:4 12:2 13:2 14:1 15:3 16:5 17:5 18:5 24:4 25:4 26:6 27:7 28:4 29:5 30:7 31:6 32:7 33:8 34:5 35:2 
-0.6237223520632259 0 0 0 0 0 0 0 0 0 0 0 0 0 0 0 0 0 0 0 0 0 0 0 0 0 0 0 0 0 2:3 3:5 4:4 5:4 6:1 7:4 8:5 9:4 10:5 11:3 12:3 13:2 14:2 15:2 16:7 17:5 18:6 19:1 24:4 25:2 26:4 27:7 28:3 29:6 30:7 31:8 32:8 33:7 34:6 35:4 
-0.1695848780366118 0.2626855685534676 0.2147337954851593 0.1928663633643589 0.2028371213266931 0.2274648846618589 0.1950038414703968 0.3119041968567136 0.3443845075187076 0.2574357976383255 0.3298296530793867 0.3198654715570778 0.3257191079780228 0.3232804330032617 0.3636498193134595 0.29212074891886 0.3314335162103027 0.349343765269472 0.3550289398983202 0.3316198250663665 0.3213518037335872 0.3783175133050749 0.2098067548936381 0.3037838236712582 0.3428743818679267 0.2911569417714225 0.311122691533952 0.2757676733017082 0.2960558237396666 0.2626155298724907 2:3 3:7 4:4 5:3 6:3 7:3 8:3 9:5 10:5 11:4 12:1 13:1 14:3 15:4 16:5 17:5 18:2 24:3 25:2 26:3 27:6 28:2 29:6 30:6 31:7 32:9 33:9 34:5 35:3 
-0.2922580256893957 0 0 0 0 0 0 0 0 0 0 0 0 0 0 0 0 0 0 0 0 0 0 0 0 0 0 0 0 0 2:3 3:5 4:6 5:3 6:2 7:3 8:5 9:3 10:3 11:3 12:3 13:2 14:3 15:2 16:6 17:6 18:4 24:2 25:2 26:6 27:4 28:6 29:4 30:6 31:6 32:8 33:8 34:6 35:4 
-0.1897874301514611 0.06292557628009257 0.1459107821830112 0.08143862263853555 0.05586175102876551 0.07298853625418242 0 0.09137964649034933 0.1082947738259786 0.07823819735519419 0.09657824635506135 0.09912799494318815 0.1018441684465835 0.1001452759390582 0.1142584337028417 0.09124061728854696 0.1039884583680068 0.1080383819330782 0.1111322480473514 0.1039243334069126 0.1006832123874204 0.09559796697724382 0 0.0949932482902744 0.1079673673829831 0.08127537991115112 0.09463963484761068 0.07259137306943898 0.07184756242617439 0.1497038893606233 2:3 3:8 4:3 5:4 6:1 7:3 8:5 9:3 10:5 11:2 12:2 13:2 14:3 15:1 16:6 17:7 18:4 24:2 25:3 26:6 27:5 28:4 29:4 30:5 31:9 32:9 33:8 34:5 35:2 
-0.3728221829544369 0.3930115805104416 0.4324541479830661 0.358252376266656 0.3325622874467017 0.4072266505859385 0.3121381565031456 0.5119378119490984 0.554086091170403 0.4286978250535213 0.5416518218371417 0.5182389125401685 0.5227819894616572 0.52113675255341 0.5840485119227731 0.4682423248774761 0.5329266524077044 0.5603910861030149 0.5693716422251055 0.5317502346520424 0.5160300858350402 0.5268088974247717 0.4966377435606251 0.4880084044812067 0.5507648937878242 0.4937470459595882 0.5071907402555121 0.482314372400726 0.48453986984436 0.4550924029500383 2:3 3:7 4:4 5:3 6:2 7:1 8:5 9:1 10:6 11:1 12:2 13:2 14:2 15:5 16:8 17:4 18:3 24:3 25:2 26:6 27:4 28:6 29:4 30:4 31:9 32:5 33:7 34:7 35:2 
-0 0 0 0.0139095333482319 0 0 0 0 0 0 0 0 0 0 0 0 0 0 0 0 0 0 0 0 0 0 0 0 0 0 2:3 3:3 4:6 5:4 6:3 7:2 8:4 9:4 10:4 11:2 12:1 13:1 14:4 15:3 16:7 17:4 18:4 24:2 25:4 26:8 28:5 29:4 30:6 31:7 32:7 33:6 34:7 35:3 
-0.3612784351669628 0.4428829968529811 0.4187319309817438 0.3031252776061011 0.4197870545761926 0.319503579082465 0.3174630138528057 0.4390367328498805 0.4570555061099428 0.352552593369971 0.4629131889549178 0.4376135350991694 0.4319582643239203 0.4298363286546186 0.4815198577791158 0.3860521370252419 0.4428947941588691 0.4643389170159724 0.4708215167076612 0.4397753672131678 0.4257787925729074 0.4331252215673992 0.4138697436574451 0.4032677130682733 0.4557294283889876 0.4921807328312549 0.446599400644683 0.4896479673434873 0.4771624089147759 0.4022836247744854 2:4 3:3 4:4 5:2 6:2 7:3 8:3 9:5 10:4 11:4 12:2 13:3 14:1 15:3 16:4 17:4 18:3 24:1 25:3 26:2 27:5 28:4 29:5 30:5 31:7 32:9 33:6 34:5 35:2 
-0 0.1363268518476635 0.5617601132776463 0.1841396545640383 0.1005557401933161 0.1175275447627177 0.1654160084158829 0.1760321304512748 0.1816203002600995 0.1422262121562919 0.1797399421316926 0.171618831098406 0.1711694027689048 0.1791261805625298 0.1915979904478008 0.153613799874849 0.1776137105507094 0.1847717185000085 0.1865415367217711 0.1748194339105769 0.1710924009238152 0.1732176653957339 0.2359366714995604 0.1592942521703772 0.1806311213082768 0.1746115756512942 0.1758718717458278 0.1919363104398862 0.1580325863147526 0.1400369599251497 2:3 3:3 4:6 5:4 6:3 7:2 8:4 9:4 10:5 11:3 12:1 13:1 14:3 15:4 16:7 17:4 18:4 21:2 22:1 24:2 25:4 26:8 28:5 29:4 30:6 31:7 32:7 33:9 34:6 35:3 36:2 37:1 
-0.2726381855620823 0.1312299643178498 0.2746186027002628 0.1721061180660664 0.1165182562438229 0.09281965487588038 0.05004844810166765 0.1849906631076188 0.2067308655750022 0.179981924699661 0.199650551401878 0.1939424540642902 0.1963448964822745 0.2075565972988552 0.2196192461756868 0.1753593950805978 0.1948243911450152 0.2077566745370778 0.2145746686195544 0.2002486636827452 0.1983400445105539 0.1965615731924357 0.4711585411355744 0.1822342947154385 0.2075391330553752 0.1821762722689732 0.1958130849994172 0.1792664246999991 0.1700761822602026 0.2647417631817939 2:3 3:5 4:5 5:4 6:1 7:3 8:5 9:4 10:6 11:2 12:2 13:1 14:2 15:4 16:6 17:7 18:5 21:1 22:1 23:2 24:4 25:3 26:4 27:7 28:5 29:5 30:8 31:7 32:7 33:6 34:6 35:3 36:2 37:2 
-0.1110606160349494 0.03262747199262027 0.364265766398608 0.1055668507409811 0.03976796758215424 0.07234981663204212 0 0.05968969673106175 0.05984195286232177 0.06072803661161245 0.06242453818314253 0.07040833969129827 0.05916861481469631 0.05755356228991473 0.06562566827406052 0.05355420080479435 0.06007398117354446 0.0641377914586793 0.06431986810953672 0.05996973792807303 0.05893349333041149 0.07394893271529267 0.01972441023317976 0.05653382714160265 0.06245090640226071 0.07153858921304571 0.0594841360041883 0.07940306182390636 0.07957465474964559 0.2406183437297471 2:4 3:5 4:4 5:4 6:1 7:4 8:5 9:4 10:6 11:1 12:2 13:2 14:2 15:4 16:5 17:7 18:5 24:3 25:4 26:4 27:7 28:5 29:5 30:8 31:7 32:7 33:6 34:4 35:4 37:1 
-0.02375982961521617 0.1390473048830474 0.4659857664117848 0.2615000315171955 0.07673465913156478 0.2147512034585924 0.3266114666869294 0.1648062778772592 0.1272827807938882 0.1115636091901167 0.149993629247354 0.1173861144345178 0.1159989668628976 0.1247401270908263 0.1288412451077245 0.103236977441662 0.147752074111561 0.1324605404423901 0.1265829849137179 0.1193731468320295 0.1207565896695314 0.1500187437723419 0.1990089017420954 0.1079790186598244 0.1225385537409081 0.1925537598868128 0.162498053256393 0.2283194008250698 0.1475303743213834 0.1071360657718537 2:3 3:7 4:4 5:3 6:3 7:5 8:4 9:3 10:6 11:2 12:2 13:3 14:2 15:4 16:4 17:6 18:3 24:3 25:2 26:6 27:6 28:4 29:4 30:5 31:6 32:9 33:6 34:6 35:3 36:2 37:2 
-0.2214618873624051 0.18565198002306 0.7247473581898493 0.3133841624550813 0.09749944839508563 0.2375309758450773 0.3777129551885757 0.2115562879450585 0.2158021069795286 0.1671320938530299 0.2171603816841737 0.2236277004961451 0.1987964784497106 0.1939828461622788 0.216490382391276 0.1734068222489343 0.2302025901644509 0.2177830973489425 0.2107839485827781 0.1979495891054754 0.1907598656241352 0.2459320618437681 0.3623909732177106 0.181982665352476 0.2041210744492122 0.2403577532560849 0.2078495073802301 0.2326503445780634 0.2178267306103201 0.2144480989769643 2:4 3:4 4:5 5:2 6:2 7:4 8:3 9:6 10:5 11:4 12:2 13:4 14:1 15:3 16:5 17:4 18:5 24:7 25:3 26:5 27:5 28:4 29:5 30:5 31:7 32:9 33:6 34:5 35:2 
-0.2194008591481469 0.3643938882100381 0.6393439081592139 0.5585149424719172 0.2990588702135684 0.578732928983463 0.4162501065756749 0.4706279544919631 0.5390144601111254 0.3938139735741436 0.5040891793998149 0.5011305476677647 0.4946248705398592 0.4892061745518216 0.5478095170603944 0.4392093012648534 0.5045781588547016 0.5280553935327796 0.5341038471162238 0.5014767679846494 0.4851619384457659 0.5405200360528669 0.6039026204132193 0.4570407846398781 0.5169227989242079 0.4487553860712365 0.4763135612213686 0.4404369769693207 0.4350766903098033 0.4121582693857555 2:4 3:6 4:6 5:2 6:2 7:4 8:6 9:7 10:5 11:5 12:3 13:3 14:1 15:2 16:5 17:5 18:3 24:8 25:3 26:5 27:6 28:4 29:5 30:6 31:9 32:8 33:7 34:6 35:2 
-0.1651771654758402 0.2861796905249298 0.3704457417358336 0.3249545820503376 0.2594475751419909 0.4128123840202972 0.4887500922813763 0.3794543275749231 0.4200780488303862 0.3131820613236437 0.4323222882396878 0.382468300860712 0.3916226556708863 0.3894107911721941 0.4375690946002537 0.3507047553180794 0.3957336814352385 0.426201543450462 0.4280370305887837 0.399278631845736 0.3872270678888105 0.4242406131562363 0.3090833334591702 0.3658381460081562 0.412959578460009 0.3714627458576774 0.378019837414494 0.3490044427839504 0.3775364079298624 0.3386891498448412 2:4 3:6 4:6 5:3 6:2 7:4 8:7 9:4 10:5 11:5 12:3 13:3 14:1 15:2 16:5 17:5 18:3 24:8 25:3 26:5 27:5 28:5 29:4 30:8 31:8 32:9 33:5 34:6 35:2 
-0 0.04903738807824561 0.1379036944059053 0.1208000709280284 0.01977806613895639 0.1314636449151473 0.2116476913864339 0.0587908837272829 0.06096627983876382 0.04228564513570256 0.06218686788002716 0.05792977514343527 0.05741820758660925 0.05592244569623905 0.0639913629940068 0.05125879323898877 0.05951474614350089 0.06201167196024929 0.06373957314806182 0.05831870641354096 0.0569679082679496 0.05825880948892233 0.1515077180202992 0.05450729360571529 0.06169716532961838 0.05755127149300082 0.05533875645685113 0.05697302849575341 0.04782612856057311 0.04116039189042705 2:3 3:5 4:5 5:5 6:2 7:3 8:5 9:4 10:4 11:2 12:2 13:3 14:1 15:2 16:7 17:5 18:4 24:5 25:4 26:8 28:5 29:4 30:6 31:7 32:7 33:8 34:7 35:1 
-0 0 0 0 0 0 0.0005514902859405919 0 0 0 0 0 0 0 0 0 0 0 0 0 0 0 0 0 0 0 0 0 0 0 2:3 3:4 4:6 5:4 6:3 7:3 8:4 9:5 10:4 11:4 12:1 13:1 14:3 15:3 16:7 17:4 18:4 24:5 25:4 26:8 28:5 29:4 30:6 31:7 32:7 33:8 34:6 35:3 
-0.1635670244921118 -0.1538458820922139 0.2559864825597084 0.2011066481324023 0.1629397797519037 0.2117696133400343 0.1961227041508048 0.2799897555625897 0.319006689028594 0.2259884437724131 0.3160346852371045 0.2920277700506013 0.2960696874327725 0.2948094673409556 0.3411523993679217 0.2579553503954353 0.3036118705404551 0.3243850961294595 0.3304862790499352 0.3033436133765495 0.2921093851106036 0.308459876148076 0.2511591370558231 0.2712802619241075 0.3179799778829853 0.2649472116555604 0.2850795432317457 0.2591390171371293 0.2568675079259917 0.2456746967104554 2:1 3:3 4:3 5:5 6:3 7:5 8:1 9:7 10:2 11:3 12:6 13:4 14:8 15:7 16:3 17:3 18:3 24:3 25:3 26:4 27:4 28:5 29:4 30:3 31:7 32:12 33:8 34:9 35:1 36:2 37:2 
-0.3645087661755771 -0.3605673414880476 0.5673733068329802 0.4587387208227603 0.355757327564599 0.4629269825535227 0.4591380177755392 0.6510409631926791 0.6902406571039359 0.4866182655928595 0.6843794145853877 0.6314250604789129 0.6396950795619553 0.6352447405455574 0.7383191291860457 0.5548121253827114 0.659679835604792 0.6998560718246315 0.7157453841476947 0.6540640912209405 0.6294770206063043 0.6662137900811239 0.5492543584850196 0.5840282833537452 0.6846004389059679 0.5899144442495106 0.6253492402364953 0.5701379462803605 0.5667990140888155 0.5294774194021036 2:1 3:4 4:2 5:5 6:4 7:3 8:4 9:3 10:6 11:5 12:3 13:5 14:5 15:9 16:1 17:3 24:2 25:5 26:4 27:3 28:6 29:2 30:4 31:7 32:10 33:9 34:7 35:1 36:1 37:2 
-0 -0.0282670644483711 0 0 0 0 0 0 0 0 0 0 0 0 0 0 0 0 0 0 0 0 0 0 0 0 0 0 0 0 2:2 3:4 4:1 5:5 6:3 7:5 8:3 9:4 10:5 11:4 12:3 13:5 14:4 15:8 16:3 17:2 18:2 24:3 25:4 26:3 27:4 28:4 29:4 30:4 31:8 32:8 33:9 34:7 35:2 36:2 37:1 
-0.2045709009957736 -0.2051265117180467 0.3198533463604837 0.25091933072375 0.2012540535876953 0.2627824041666763 0.2392986325322952 0.3513252187988205 0.3902386758479213 0.2746475193546853 0.3834085731913551 0.3560814264052071 0.360990182314983 0.3583698396902934 0.418070171978327 0.3124478073290095 0.3683600436721951 0.395437963307137 0.404270478567026 0.3697615692902108 0.3556348213125057 0.3756506093953738 0.308410305793435 0.3299487634663592 0.3871813974259445 0.3259235208593267 0.3465091010920227 0.317821917930922 0.3233070006869548 0.2986966214869831 2:3 3:4 4:1 5:5 6:6 7:6 8:6 9:3 10:4 11:4 12:4 13:5 14:7 15:5 16:2 17:1 18:2 24:4 25:2 26:4 27:4 28:4 29:4 30:4 31:10 32:11 33:8 34:9 35:1 36:2 37:1 
-0.2903538871731791 -0.2717960665900794 0.452538216990573 0.3703408696572889 0.2866172913241671 0.3651046046709445 0.3429139652131266 0.5716674580431786 0.5548174009485533 0.3926134016780657 0.5442619562316153 0.5104971396662593 0.5143530138082886 0.5115872395226395 0.5936809646909501 0.4467548201028566 0.5355955374175043 0.5662269875294517 0.5754149081028394 0.5261533706193364 0.5068995881163894 0.5356989315742131 0.4439898583183112 0.4703248528772125 0.550564071747313 0.5167539557525835 0.5123943716795564 0.4868558466424607 0.4581303832494199 0.426691200396867 2:1 3:2 4:5 5:1 6:5 7:2 8:5 9:4 10:4 11:5 12:3 13:6 14:7 15:9 16:1 18:2 24:2 25:4 26:4 27:6 28:5 29:5 30:2 31:6 32:8 33:7 34:9 35:2 36:2 
-0.1926681363876051 -0.1841544335999783 0.303991234247213 0.2545202355394405 0.1878176082875023 0.2363066000358677 0.2294176961122577 0.3442899434946494 0.3669586525944976 0.2595244299121806 0.3616368636492062 0.3362974107381655 0.3403172817637927 0.3377383654358081 0.3925073002865271 0.2950078562418526 0.3482412933312322 0.3746858562054618 0.3803021239177976 0.347499207167437 0.335113538425856 0.3545693874283166 0.2953244507064656 0.3108215156196676 0.3643450339049286 0.3280059526606861 0.3449100203031697 0.3129648763330785 0.3089273234113172 0.2817265750989998 2:1 3:3 4:3 5:5 6:3 7:6 8:2 9:8 10:3 11:5 12:3 13:6 14:5 15:7 16:1 17:3 24:6 25:4 26:4 27:3 28:6 29:3 30:3 31:7 32:10 33:7 34:7 35:1 36:1 37:2 
-0.01205130343310914 -0.06410112190330307 0.01556183328997897 0.009333144968651489 0 0.00450757817259633 0.07088272431431741 0 0 0 0.001125305243703573 0 0 0 0 0 0 0 0 0 0 0 0.004068419605095071 0 0 0.03267767626968966 0 0.03220622697266916 0.003889149260345119 0 2:3 3:2 4:3 5:5 6:2 7:5 8:1 9:5 10:3 11:5 12:4 13:4 14:5 15:7 16:1 17:4 24:3 25:3 26:4 27:3 28:6 29:3 30:3 31:7 32:10 33:7 34:7 35:2 37:1 
-0.1429052058532246 -0.1467603994919486 0.2327056636311559 0.1841483920426411 0.1340898259391198 0.230766988853273 0.1674844391255047 0.249432838166111 0.2731628804456876 0.1847191930589847 0.265615782785936 0.2479720092005031 0.2495571429323082 0.2480727688126633 0.2926813849406516 0.2127916755853606 0.2722996538480407 0.2754565156543674 0.2822439928687104 0.2559335261380915 0.2446948084424918 0.2613884294618575 0.2165715309323607 0.2255844856117825 0.2691670276363389 0.2299751453122011 0.2433717507602602 0.2475775952859009 0.2157513254965345 0.2037441422272485 2:3 3:3 4:3 5:3 6:4 7:6 8:4 9:3 10:5 11:5 12:2 13:7 14:7 15:8 16:5 17:4 18:1 24:2 25:5 26:4 27:6 28:5 29:5 30:3 31:10 32:10 33:8 34:10 35:2 36:2 37:1 
-0.04736903458027006 -0.063992111048661 0.08069828395777165 0.07465987323013043 0.04362159609156111 0.06681865679626779 0.08679710088661452 0.112350428504774 0.08755087038960713 0.06196612012926136 0.09121411549823005 0.08261186895182034 0.0814456788742548 0.08070138430368348 0.09365938547657447 0.06929059995358219 0.0841456708994668 0.09007151260971207 0.09089128471762094 0.0825575738222417 0.07990128908587801 0.08554579457336055 0.07517459636469909 0.07426763703530982 0.08709582322419027 0.08277205775742937 0.08023299579335272 0.08216381510141337 0.07387023539912495 0.06715204337601863 2:1 3:3 4:3 5:4 6:4 7:1 8:6 9:4 10:5 11:5 12:4 13:5 14:6 15:8 16:1 17:4 24:5 25:3 26:4 27:4 28:5 29:4 30:2 31:8 32:10 33:8 34:8 35:2 36:1 
-0.09593985397947277 -0.08328748489280756 0.1472780841169414 0.1229641240044329 0.09669290085287523 0.1160483911037356 0.1105520931572494 0.1616228776268065 0.186998301413175 0.1329241180336957 0.1824923573391589 0.1708173592798493 0.1741120772638861 0.1723987049403249 0.2000152252111124 0.1511016110806674 0.1775705422101283 0.1882503591737386 0.1939419866223278 0.1769688377550388 0.1704934550229331 0.1790719533139255 0.1475617407915994 0.1588699423690939 0.1857490136553897 0.1593016398684163 0.1668946294447501 0.1512569537381943 0.1526137278061399 0.1431831136412994 2:2 3:4 4:3 5:4 6:4 7:5 8:4 9:4 10:5 11:5 12:2 13:5 14:6 15:6 16:1 17:1 18:2 24:4 25:3 26:2 27:5 28:3 29:4 30:3 31:9 32:12 33:3 34:12 36:3 
-0.08594393308390058 -0.07530292136180426 0.1229545244968429 0.1068387433234077 0.07900607147886984 0.1026010178443485 0.1018078775476021 0.1280392317563367 0.1488487494666957 0.1047796595959278 0.1451424924577852 0.1341857665179815 0.136423063540991 0.1357303348783374 0.157886224510547 0.1186996433005446 0.1380448978632978 0.1487778805881275 0.1529309150608131 0.1412779330533791 0.1340171516387605 0.1430806127222872 0.1194829486991329 0.1250262450091735 0.1460049118902084 0.1181621078616977 0.1275306831278512 0.106259386959249 0.1208437180715357 0.1146977446216651 2:3 3:3 4:3 5:2 6:4 7:3 8:3 9:3 10:4 11:4 12:3 13:6 14:7 15:5 16:2 17:1 18:3 24:4 25:3 26:3 27:4 28:3 29:5 30:2 31:9 32:5 33:12 34:6 35:2 36:1 
-0.2212171300014753 -0.1991886763335501 0.3398535957490283 0.2749751617857943 0.2186180468238347 0.2723434515877113 0.2499697677754743 0.374565963593855 0.4255760133148254 0.2997482342191131 0.4120890175767066 0.3899314361567431 0.3951748462464289 0.3923314205349767 0.4552805501459985 0.3418634908398388 0.4056062915697449 0.4304352779250495 0.4407483697145745 0.4029794528511488 0.3884087427805246 0.410106829090554 0.3366896294482767 0.3593996738994308 0.4218024949618244 0.3564881058820034 0.3774745925697283 0.3420487783839389 0.344596235497316 0.3274470343070578 2:2 3:4 4:3 5:4 6:4 7:5 8:4 9:4 10:5 11:4 12:2 13:6 14:8 15:5 16:1 17:2 18:3 24:4 25:3 26:2 27:5 28:3 29:4 30:3 31:9 32:14 33:3 34:12 35:2 36:1 37:1 
-0.2354876136755456 -0.2242930844915447 0.3589947665789926 0.295935307290335 0.2289611441458516 0.2975088115561414 0.274712196755712 0.4189940440310195 0.4395830182502946 0.3138604400741412 0.4317303859747409 0.4026031957721794 0.4086398870195431 0.4061471259742803 0.4699319853068503 0.3561780178891385 0.4160254404255558 0.4450260083800652 0.4558276587949376 0.4177120701249951 0.4029022648644197 0.4242777862068764 0.3513988801096537 0.3739271792879647 0.4366779265127683 0.3753948085363533 0.3911144459097209 0.3706431274578418 0.3610495764762168 0.340336414912525 2:2 3:3 4:4 5:4 6:4 7:3 8:5 9:3 10:4 11:6 12:3 13:5 14:7 15:8 16:2 17:4 24:3 25:4 26:4 27:4 28:5 29:3 30:2 31:8 32:8 33:8 34:14 35:3 37:1 
-0.003056084588555396 -0.005208025190924183 0.00839562066991901 0.006068739441227449 0.003627118511000906 0.009134337947390837 0.005175071542459652 0.01277204607910147 0.01088223791214701 0.006432732755934032 0.010330633921627 0.009335213027220971 0.01004998677467497 0.009740313264611797 0.01227061461754373 0.007696079304760274 0.01052592579954969 0.01101399899135904 0.01240793431888166 0.01084155549951747 0.009628551758619 0.01122770964536837 0.007312130682715876 0.008504100747574283 0.01058480691846424 0.004833999592775582 0.008048702268680947 0.004745970057736575 0.006842329147034196 0.007334891799602072 2:2 3:3 4:3 5:6 6:5 7:5 8:4 9:6 10:4 11:5 12:2 13:5 14:7 15:6 16:2 17:1 18:3 24:4 25:1 26:4 27:4 28:5 29:4 30:5 31:9 32:12 33:5 34:12 35:2 36:2 
-0.1530739573735632 -0.1341325997423168 0.2460686323813315 0.2014205628464083 0.1579103137379119 0.1908333055384351 0.1600077509326623 0.3194335345960653 0.2956787635415769 0.211843806847725 0.288748578723638 0.2705284761207139 0.2749283376867202 0.2736022979339954 0.3157737047702894 0.2388561346662012 0.2827368382215617 0.3005494622618945 0.3066016149782769 0.2808049961633745 0.2711243887190281 0.2859278858132512 0.240245655061478 0.2518244477554061 0.293443240538443 0.2550260783963591 0.2761908589433957 0.282597769735375 0.2414751210412095 0.2286189422926014 2:5 3:2 4:4 5:4 6:3 7:4 8:2 9:5 10:3 11:4 12:3 13:5 14:6 15:9 16:1 17:4 24:2 25:4 26:4 27:3 28:6 29:3 30:3 31:7 32:10 33:7 34:8 35:2 36:4 37:1 
-0.346533533766515 -0.3402538921049499 0.5366241843229236 0.4306913079111769 0.3426758803969744 0.4392700072419171 0.4042193870039348 0.615446973005488 0.66060687799632 0.4657315540434693 0.6472958798948865 0.604926215473221 0.6119467328741812 0.6072286567308984 0.7060062949799032 0.5301004650585062 0.6304697943308749 0.6685379575522468 0.6841264152926941 0.6251334056065692 0.6016202760605743 0.6360946472322109 0.5246836737074456 0.5583761644755598 0.6544960995960837 0.5656835408653246 0.593449771061245 0.5521910842949873 0.5438055304329089 0.5067968383398265 2:3 3:1 4:6 5:1 6:7 7:3 8:3 9:5 10:4 11:4 12:3 13:8 14:6 15:7 16:2 17:2 18:3 24:2 25:2 26:4 27:6 28:5 29:4 30:6 31:7 32:9 33:8 34:10 35:1 36:3 37:1 
-0.3216889566650576 -0.3106832970669222 0.5028929852785096 0.4124592897371024 0.3145743757633943 0.4090061435730786 0.3872646990939546 0.5826773397421277 0.6115420494857236 0.4318262113869227 0.6022651702325106 0.5621920046307662 0.5664933861139964 0.5627066099808572 0.6537082395598204 0.491701101431884 0.5824465157321066 0.6201601260231342 0.6334879753969031 0.5788608433175961 0.5577580602249672 0.589119562050622 0.4896640996651385 0.5176774685401177 0.6065487677460877 0.5315368804227438 0.551571360233226 0.5219357312608908 0.5010992005164302 0.4694825234578755 2:1 3:2 4:4 5:4 6:3 7:4 8:2 9:6 10:3 11:3 12:7 13:8 14:7 15:5 16:3 17:2 18:2 24:3 25:4 26:5 27:2 28:7 29:4 30:4 31:6 32:10 33:7 34:10 35:1 36:3 
-0.04630271869457338 -0.04678152064347423 0.07515393778761247 0.06305749134624231 0.04622476111459156 0.05499005720169563 0.05456347247103864 0.07015706870687902 0.08750009098792008 0.06344231836563373 0.08685106371422839 0.08081631211637994 0.08249991369103552 0.08171900093625123 0.09404518759950394 0.07233636853355048 0.08167654732580321 0.09081770227617438 0.09128381403194177 0.08354032806242831 0.08094828059974905 0.08549659133087693 0.06931212590848265 0.07507293366441743 0.08725836909785939 0.07919517949580766 0.07949816340115851 0.07226455681955148 0.07197475247880966 0.06884766813557362 2:3 3:5 4:1 5:3 6:4 7:4 8:7 9:5 10:6 11:3 12:3 13:6 14:7 15:6 16:2 17:2 18:2 21:1 24:5 25:5 26:3 27:5 28:4 29:4 30:1 31:10 32:10 33:9 34:10 35:1 36:2 37:1 
-0.2286280385712972 -0.2329316509367292 0.3514898999102074 0.2807443731423943 0.2246991123872222 0.2878784088576701 0.2662158974269506 0.377532476441752 0.4222577445873997 0.2990868209840848 0.4177724219078468 0.3878209187522781 0.3907427850106097 0.3881331117858563 0.4507478433940117 0.3397560655026372 0.4017503948722214 0.4274421907440411 0.4370663499864887 0.3990253097847713 0.3846885409854333 0.4073701789355253 0.338784957432662 0.3575923753832783 0.4180548388032207 0.3688005590800676 0.3761884646337048 0.3632329355267786 0.3547285404968486 0.3259121877674098 2:3 3:2 4:3 5:5 6:2 7:5 8:2 9:5 10:3 11:3 12:2 13:8 14:5 15:6 16:1 17:3 18:1 24:2 25:5 26:3 27:2 28:6 29:3 30:4 31:6 32:10 33:8 34:7 35:2 37:1 
-0.3774714352859374 -0.3851186877466316 0.5739376407780417 0.4688936729623742 0.3641391082845513 0.4695012297844426 0.4424448390127757 0.6255811910820239 0.6963698171547975 0.4928575640466504 0.6830493850989532 0.6363056006385378 0.6448761620494329 0.6406012226950217 0.7428555834279609 0.5600470365996034 0.6630632197709845 0.7042301088069604 0.7201137829960139 0.6587223794074435 0.6347892126265997 0.6706727634047742 0.5565179095991655 0.5896126280575537 0.6896252020314059 0.5917302638609396 0.6207043153097533 0.5781222336740955 0.5798981130384594 0.5355578793754138 2:3 3:1 4:6 5:5 6:5 7:1 8:4 9:3 10:4 11:4 12:3 13:4 14:6 15:7 16:1 17:2 18:2 24:4 25:1 26:4 27:4 28:4 29:4 30:4 31:9 32:9 33:4 34:11 35:1 36:2 
-0.1016192764968621 -0.09512932768503103 0.1563777951438358 0.1264395308093369 0.09857390470603876 0.1293153799617758 0.1149850327740852 0.1564516990625293 0.1949068922368335 0.1365324889175008 0.191877471414355 0.177483825106532 0.1811027256344485 0.1789823639231992 0.2099583511680449 0.1564546460102097 0.1834184472699456 0.197128590605628 0.2032397314734334 0.1848312998728696 0.1774788714223875 0.1883581399101874 0.1525775286643361 0.1644766513586227 0.1941047948623441 0.1619614894366104 0.1713818368193309 0.1586365806318079 0.1569196650053433 0.1488602719429186 2:3 3:3 4:5 5:3 6:5 7:4 8:5 9:5 10:5 11:2 12:2 13:7 14:6 15:6 16:2 17:1 18:3 22:1 24:2 25:3 26:5 27:4 28:4 29:3 30:2 31:9 32:9 33:12 34:12 35:1 36:2 
-0.04828802151768603 -0.09613830236385604 0.06851487530553781 0.04329942238959015 0.03761474635837793 0.06348119340950988 0.0687300255128932 0.02764612389521674 0.06598691424080141 0.0456162571170924 0.06733846429218608 0.05953087874226459 0.06047007860348599 0.05986994006566281 0.0701388309821299 0.05207290761524783 0.05813361305274865 0.06526457642728149 0.06795230038633128 0.06170498615131931 0.0590976667200319 0.06399442272024966 0.06145887736235257 0.05509158016392034 0.06455312510150128 0.04587027631653678 0.05190759584226346 0.03800352832621649 0.05329782914678791 0.05078163916575056 2:3 3:5 4:4 5:2 6:4 7:3 8:3 9:3 10:5 11:5 12:3 13:5 14:5 15:6 16:3 17:1 18:3 24:4 25:3 26:3 27:4 28:3 29:4 30:1 31:10 32:11 33:8 34:10 35:1 36:1 
-0.05857885113364273 -0.0609115557582118 0.09403122290317549 0.07773755461907986 0.05440347460177686 0.0810346499936475 0.07583472556974101 0.0835445231578731 0.104862532776708 0.07351005589350032 0.1081124370356958 0.09617522428857266 0.09675051848859864 0.09600026858002812 0.1123392139540922 0.08440204291310037 0.1006928353811923 0.1077769815309377 0.1081592067747559 0.09910114818484911 0.09543548267420651 0.1019699194100124 0.08523188537473904 0.08897870338599621 0.1037235064413252 0.09134177539376574 0.09273952074165576 0.09626531817716257 0.08533582337261714 0.08053796897761467 2:2 3:4 4:4 5:4 6:5 7:4 8:5 9:4 10:4 11:3 12:3 13:6 14:7 15:5 16:2 17:1 18:3 24:2 25:3 26:4 27:5 28:4 29:5 30:3 31:7 32:12 33:4 34:13 35:2 36:2 
-0 -0 0 0 0.002056660139898562 0 0 0.06189925436094153 0.0114759258827143 0.003274750305833997 0.01379001886817944 0.008812609438256706 0.008576545290180333 0.008710427005171658 0.012873884562251 0.005847821307485309 0.01384640398480601 0.01203237817003401 0.01181227446768609 0.01016540924701988 0.008711098798447378 0.009492025685818965 0 0.006655976147420676 0.01108078381114238 0 0 0 0.001872819864925569 0.003478715527904472 2:3 3:3 4:3 5:3 6:4 7:3 8:5 9:3 10:4 11:4 12:5 13:9 14:8 15:7 16:2 17:3 18:2 24:4 25:4 26:5 27:5 28:5 29:3 30:5 31:7 32:12 33:8 34:9 35:2 36:2 
-0.1125067158072274 -0.1144363529612094 0.1896498788053227 0.1654300317891939 0.1053457669806271 0.1494836383864862 0.1474468032870559 0.2067345776466033 0.2147008947851603 0.1470377088921764 0.2124916295157244 0.1959000887532658 0.1979655014508172 0.1963509200763755 0.2309514767716103 0.1684656139260641 0.2156732444227839 0.2184156134779021 0.2227151751091757 0.202604342007274 0.1944609075318724 0.2071154964710455 0.1734711045941247 0.1790121344874812 0.2124079741600705 0.1930820185875723 0.1996244887613264 0.1822827854265909 0.1797329305085506 0.1610352189376608 2:1 3:3 4:4 5:4 6:3 7:4 8:2 9:7 10:2 11:2 12:4 13:7 14:7 15:7 16:3 17:2 18:2 24:2 25:6 26:4 27:3 28:6 29:4 30:5 31:6 32:11 33:7 34:7 35:2 36:1 
-0.4429182984843029 -0.4318475671334551 0.6965257950165559 0.5715677771024481 0.4463736368699687 0.5648121759102841 0.5236968991716476 0.7740480598591099 0.8385072559093403 0.5964568321880559 0.8230219840040038 0.7691002479058143 0.7771876984061266 0.771230654316845 0.8958123414982787 0.6751883771420769 0.808607245964972 0.8533097571181858 0.8686697008601333 0.7938786646200818 0.7644306344988241 0.8096604468230118 0.6756164893897424 0.7107045063259584 0.8323571719877057 0.7712439746144199 0.7740161398481652 0.7282078740959178 0.7380868306877124 0.6455800151622327 2:3 3:3 4:2 5:3 6:3 7:4 8:3 9:3 10:4 11:4 12:2 13:5 14:6 15:5 16:1 17:1 18:2 24:4 25:3 26:2 27:5 28:3 29:4 30:3 31:9 32:3 33:11 34:3 35:2 36:2 
-0.2620753051284075 -0.2567469435361991 0.4054564596404099 0.3299849362243283 0.2546619677071053 0.3309454797429697 0.3067458301620763 0.4530425718872913 0.494871116342611 0.3499712525832431 0.4849340749867483 0.4536337025886787 0.4582811091912803 0.4550060797579145 0.528661907995313 0.3977102199301542 0.4720447774628915 0.5018582490102413 0.5119344213679314 0.4682363090628504 0.4513482444795802 0.4769375664181285 0.3930191480397272 0.4191794629748432 0.4902302620344884 0.4238748418102261 0.4425677138527521 0.4067341054403233 0.4037118134348694 0.3802823018623732 2:2 3:3 4:3 5:4 6:5 7:2 8:5 9:5 10:4 11:4 12:3 13:5 14:6 15:6 16:2 17:2 18:2 24:4 25:2 26:4 27:4 28:4 29:1 30:3 31:9 32:12 33:3 34:13 35:3 36:1 
-0.3146514345883922 -0.3089853547858391 0.4870898991677876 0.3936556512419782 0.306216957628651 0.4011139191324701 0.3716118500313688 0.5147344855175057 0.590566438912815 0.4186116292259849 0.5811215760604424 0.5403730930360127 0.5471695581398748 0.5441739260926549 0.6305728582931337 0.4755775039576622 0.5624202241864516 0.5982501621944182 0.6113641968070144 0.559264763733592 0.5390458285034372 0.5694752239225854 0.470811249078083 0.500616451958271 0.5855192528569423 0.5051007388087486 0.5279485750746151 0.4894235303517332 0.4858023939363242 0.4539494132500305 2:2 3:4 4:3 5:4 6:4 7:5 8:4 9:4 10:5 11:6 12:3 13:5 14:8 15:6 16:2 17:2 18:2 24:4 25:3 26:2 27:5 28:3 29:4 30:3 31:9 32:14 33:4 34:14 35:3 36:1 
-0.3303351725116959 -0.3303012831927624 0.5081919019238589 0.4183100122049346 0.3183142359904697 0.4173813687040069 0.3879847516958143 0.531741345591583 0.6179767580544907 0.4357530624462787 0.6073187232424527 0.5654155812391188 0.5723918195586667 0.5678767706921728 0.6603380572702315 0.4961166913954478 0.590097324416572 0.6261178199103639 0.6396153370421106 0.5846983153852836 0.5627196135958662 0.5956642006074872 0.4957385755963579 0.5225342135407868 0.6117273268697454 0.5221748534019193 0.5489538092872571 0.5088030881137619 0.5047251671225816 0.4739205314301803 2:2 3:3 4:4 5:5 6:3 7:5 8:2 9:7 10:2 11:5 12:2 13:5 14:4 15:7 16:1 17:4 18:1 24:1 25:3 26:4 27:3 28:6 29:3 30:3 31:7 32:10 33:7 34:13 35:1 36:1 
-0.3584340807061756 -0.3688144029891625 0.5091136711997064 0.4068437232104494 0.309400119183631 0.4127102000012575 0.401319511423083 0.5208929483955896 0.6053058157935106 0.4277815499854851 0.5939014433275387 0.5550764413602763 0.5613452185835013 0.5569147641620438 0.6463521328998175 0.4860681081456479 0.581354364686427 0.6118325044762215 0.6260673524875998 0.5731743431514098 0.552134388689405 0.5827714102763197 0.4956210748735165 0.5129353715516594 0.598984322615006 0.5329980295844959 0.5409774520064464 0.5274801337939334 0.4932433472556916 0.4701002856742878 2:2 3:3 4:2 5:3 6:3 7:4 8:3 9:3 10:4 11:4 12:2 13:5 14:6 15:4 16:1 17:2 18:3 24:4 25:3 26:2 27:5 28:3 29:4 30:3 31:9 32:4 33:12 34:4 35:1 
-0 -0 0 0 0 0 0 0.2868685444005564 0 0 0 0 0 0 0 0 0 0 0 0 0 0 0 0 0 0 0 0 0 0 2:3 3:3 4:3 5:3 6:4 7:3 8:5 9:2 10:4 11:4 12:3 13:7 14:8 15:7 16:3 17:2 18:2 24:4 25:2 26:5 27:4 28:6 29:2 30:4 31:10 32:7 33:8 34:10 35:2 36:2 
-0.009277519736491401 -0.03659921258408607 0.04646176449555379 0.04503731712055895 0.01010090226940368 0.03116137986481581 0.06121414385160279 0.06666799885998927 0.01304165965466694 0.01112041612560342 0.01301874955514343 0.01307896476503819 0.01127719313159963 0.01115013533763657 0.0111411051155266 0.01068667506759596 0.03272573441987681 0.01912082497618783 0.01188733257226142 0.01095941603808895 0.01107714778847738 0.01665546350310639 0.01962047268232182 0.01060127125973297 0.01160587750956943 0.07636041891141017 0.04180756077415224 0.04802160056448736 0.02528994118806258 0.01129668735052988 2:3 3:2 4:4 5:2 6:5 7:4 8:3 9:4 10:4 11:3 12:5 13:5 14:8 15:5 16:2 17:2 18:1 24:3 25:3 26:6 27:4 28:3 29:3 30:4 31:7 32:10 33:9 34:7 35:2 36:1 
-0 -0 0 0 0 0 0 0.005020461445600879 0 0 0 0 0 0 0 0 0 0 0 0 0 0 0 0 0 0 0 0 0 0 2:1 3:2 4:4 5:5 6:2 7:5 8:1 9:6 10:2 11:5 12:4 13:7 14:5 15:9 16:1 17:4 18:1 24:2 25:4 26:4 27:3 28:6 29:3 30:3 31:7 32:10 33:7 34:10 35:3 36:2 
-0.2817646505306887 -0.2695683180517353 0.424519200015363 0.3477273154880358 0.2574624440924436 0.3479338860169 0.3221154554425322 0.4348154163712259 0.5071494034898758 0.3548491908758492 0.4962032142771121 0.4616915430844847 0.4687081881749119 0.4647965373730935 0.5423504374295881 0.4041730691711321 0.4813577986518449 0.512057053827582 0.5246461506638978 0.4776202513669465 0.4599584541220005 0.4876107914047161 0.4051650397690833 0.4268721265126224 0.5009623293928691 0.4189698295372993 0.4454327863251432 0.4136977317883755 0.4081377987551303 0.3875460372265303 2:2 3:3 4:3 5:5 6:2 7:5 8:1 9:6 10:2 11:2 12:5 13:5 14:9 15:5 16:5 17:2 18:3 24:3 25:4 26:4 27:4 28:5 29:4 30:3 31:8 32:11 33:9 34:8 35:1 36:1 
-0.2351665934335437 -0.2466323636576445 0.3729237338984865 0.3151533089321261 0.2234776665196067 0.2981458269420502 0.3150037733028576 0.4598460768902175 0.4317633034155948 0.3029176570809667 0.4260228250810298 0.3962761366419049 0.398389642978947 0.3956006593921042 0.4602451792483601 0.3452580391671012 0.4134003925741403 0.4360840166950252 0.4458666369309396 0.4068233354691379 0.3919088245056007 0.417615690928592 0.3493069006670237 0.3639052713832967 0.4268393567813047 0.3746282733513521 0.3912817723983636 0.3743514271184699 0.3533910341085469 0.3309243760798495 2:3 3:3 4:3 5:3 6:4 7:3 8:4 9:4 10:4 11:7 12:4 13:6 14:9 15:3 16:3 17:3 18:1 19:1 24:2 25:4 26:4 27:5 28:5 29:3 30:5 31:8 32:9 33:9 34:10 35:2 36:2 
-0.414537321203775 -0.412352817275899 0.6379802372697075 0.5258833978802887 0.4005959085962835 0.5429458282114796 0.4957579717046245 0.6739185725716469 0.7756420172923697 0.546622791882149 0.7621524042973921 0.7072838469174518 0.7177226938652374 0.7125450355991622 0.8277546722623369 0.6230667771799664 0.7270741804860892 0.7849647237584224 0.8024241335574383 0.7329099876859466 0.7058159843612561 0.747480978928417 0.615545329204741 0.6557342708950334 0.7679658598876894 0.6469447132590641 0.6875110415696829 0.6364150372005988 0.6330743539313625 0.594504722047717 2:1 3:4 4:2 5:5 6:4 7:7 8:4 9:7 10:2 11:6 12:3 13:5 14:5 15:8 16:1 17:4 18:2 24:8 25:5 26:4 27:6 28:4 29:3 30:3 31:8 32:8 33:7 34:12 35:1 36:1 
-0 -0 0 0 0.002308544778944995 0 0 0.003123141557676607 0.005689970465507743 0.005232390979965544 0.005628354572681568 0.005274061537260507 0.007362503688801196 0.005824904202830767 0.006560801179202389 0.006138707169429479 0 0.003018295401631397 0.006844765081933281 0.006400878957032751 0.006494092317894198 0.005052709296861068 0 0.006224732319652915 0.006401794712771659 0 0 0 0 0.005388751846747052 2:1 3:3 4:3 5:5 6:3 7:5 8:2 9:6 10:3 11:5 12:4 13:6 14:5 15:10 16:1 17:4 24:5 25:3 26:4 27:3 28:6 29:3 30:3 31:7 32:10 33:7 34:11 35:3 36:1 
-0.05929199281369691 -0.05407590913390802 0.0168530117415121 0.02083842155725924 0 0 0.01513844077500945 0.3451412534322397 0 0 0 0 0 0 0 0 0 0 0 0 0 0 0 0 0 0.08107450866544158 0.01926158087817051 0.1469675768504092 0 0 2:3 3:3 4:3 5:3 6:4 7:3 8:4 9:3 10:4 11:3 12:4 13:7 14:6 15:7 16:3 17:2 18:5 19:1 24:3 25:4 26:3 27:4 28:5 29:4 30:5 31:8 32:8 33:8 34:8 35:4 36:3 37:1 
